698 100
</s> 0.004003 0.004419 -0.003830 -0.003278 0.001367 0.003021 0.000941 0.000211 -0.003604 0.002218 -0.004356 0.001250 -0.000751 -0.000957 -0.003316 -0.001882 0.002579 0.003025 0.002969 0.001597 0.001545 -0.003803 -0.004096 0.004970 0.003801 0.003090 -0.000604 0.004016 -0.000495 0.000735 -0.000149 -0.002983 0.001312 -0.001337 -0.003825 0.004754 0.004379 -0.001095 -0.000226 0.000509 -0.003638 -0.004007 0.004555 0.000063 -0.002582 -0.003042 -0.003076 0.001697 0.000201 0.001331 -0.004214 -0.003808 -0.000130 0.001144 0.002550 -0.003170 0.004080 0.000927 0.001120 -0.000608 0.002986 -0.002288 -0.002097 0.002158 -0.000753 0.001031 0.001805 -0.004089 -0.001983 0.002914 0.004232 0.003932 -0.003047 -0.002108 -0.000909 0.002001 -0.003788 0.002998 0.002788 -0.001599 -0.001552 -0.002238 0.004229 0.003912 -0.001180 0.004215 0.004820 0.001815 0.004983 -0.003111 -0.001532 -0.002107 -0.002907 0.002815 0.001579 0.000425 -0.002194 0.001524 0.003059 0.000194 
the 0.046599 -0.255555 0.426378 -0.112623 -0.079961 0.025812 0.043111 -0.230617 -0.047613 0.008835 0.026618 0.133719 -0.319835 -0.397998 0.203221 -0.078485 0.162219 -0.038578 0.056647 0.250106 -0.111854 -0.092921 0.137252 -0.309845 -0.147091 -0.215727 -0.102052 0.323872 0.225707 0.122080 -0.073387 0.056472 0.021406 -0.069005 -0.076811 0.226315 0.131870 -0.214281 0.383259 -0.065607 0.235693 -0.011774 0.021284 -0.022579 0.162506 0.076725 -0.263518 -0.072851 -0.143569 -0.476209 0.062480 -0.116537 0.253852 -0.314939 0.020685 -0.175859 0.037351 -0.017960 0.351188 -0.165860 0.000160 0.073362 -0.057110 0.023350 -0.199383 0.196041 0.009645 -0.163451 0.254972 0.048950 -0.021247 -0.060350 0.194678 -0.193475 -0.288118 -0.061522 0.149099 -0.011942 -0.371285 -0.172014 0.104521 0.047254 -0.149300 -0.272129 -0.149108 0.240647 0.059337 -0.182394 0.461671 -0.201236 0.112745 0.175551 0.244684 -0.014343 0.101332 -0.015767 -0.053810 0.344898 0.298290 -0.005483 
and 0.065724 -0.391373 0.655672 -0.173545 -0.121908 0.039855 0.071217 -0.357095 -0.069695 0.022188 0.037560 0.207306 -0.490120 -0.622306 0.318171 -0.123529 0.256842 -0.052743 0.087351 0.392359 -0.167058 -0.140345 0.212594 -0.474633 -0.232460 -0.326099 -0.154053 0.497446 0.350120 0.193641 -0.113206 0.088102 0.034821 -0.101452 -0.124531 0.348499 0.206416 -0.331610 0.599263 -0.095647 0.368850 -0.013105 0.032631 -0.036086 0.260453 0.111764 -0.405182 -0.106702 -0.223113 -0.746222 0.101865 -0.184246 0.393308 -0.493081 0.036185 -0.279183 0.062355 -0.027195 0.553927 -0.254606 0.009215 0.117216 -0.092997 0.039078 -0.309007 0.299542 0.017621 -0.256723 0.393255 0.070094 -0.032284 -0.083646 0.310493 -0.303474 -0.451972 -0.094069 0.231780 -0.008446 -0.583655 -0.262386 0.168227 0.073979 -0.222052 -0.410382 -0.228752 0.369945 0.088477 -0.288974 0.712482 -0.313757 0.179558 0.271388 0.385209 -0.025195 0.157469 -0.029167 -0.083217 0.533077 0.465545 -0.005738 
to 0.039460 -0.244118 0.416113 -0.107666 -0.071942 0.026921 0.043667 -0.230178 -0.042797 0.014564 0.020220 0.137926 -0.312218 -0.397467 0.199668 -0.076377 0.165518 -0.037559 0.058457 0.242070 -0.110420 -0.089294 0.132004 -0.307747 -0.147479 -0.210985 -0.097982 0.321475 0.228508 0.116600 -0.075199 0.057422 0.021868 -0.059883 -0.074556 0.227264 0.127399 -0.205247 0.386923 -0.060894 0.238669 -0.008609 0.014894 -0.018960 0.168419 0.067044 -0.258222 -0.072556 -0.137546 -0.475807 0.069508 -0.115999 0.250713 -0.315360 0.016547 -0.180688 0.038636 -0.009479 0.346131 -0.164962 0.004190 0.075826 -0.055429 0.025652 -0.195675 0.193797 0.006662 -0.163281 0.249417 0.045172 -0.013774 -0.052531 0.193557 -0.192303 -0.290027 -0.060088 0.151005 -0.011704 -0.370523 -0.169511 0.106893 0.048190 -0.143554 -0.267788 -0.143970 0.233834 0.051992 -0.181911 0.448670 -0.196534 0.114309 0.169676 0.242697 -0.011336 0.102841 -0.012822 -0.053573 0.340557 0.298491 -0.008316 
a 0.042908 -0.262573 0.437116 -0.114596 -0.076198 0.029830 0.042693 -0.236479 -0.046929 0.014874 0.023374 0.147700 -0.328215 -0.417771 0.212095 -0.082071 0.168486 -0.033435 0.059974 0.267158 -0.113631 -0.094557 0.146645 -0.326413 -0.151647 -0.228520 -0.106012 0.335929 0.243448 0.122734 -0.078171 0.060241 0.024776 -0.063314 -0.083099 0.230778 0.137561 -0.215899 0.406838 -0.060495 0.245975 -0.011101 0.020790 -0.026286 0.177195 0.069065 -0.270470 -0.076094 -0.146074 -0.499676 0.067101 -0.119521 0.268155 -0.327951 0.018615 -0.189549 0.045838 -0.011030 0.373890 -0.171855 0.004877 0.079971 -0.060718 0.028234 -0.213886 0.202129 0.013274 -0.171853 0.268740 0.051758 -0.017708 -0.063517 0.213504 -0.200030 -0.311293 -0.057030 0.154670 -0.009593 -0.385995 -0.171329 0.110428 0.049193 -0.152594 -0.284062 -0.155650 0.250975 0.062729 -0.189260 0.479427 -0.206096 0.122234 0.183439 0.256878 -0.015477 0.106075 -0.016420 -0.052212 0.361788 0.312194 -0.006678 
she 0.059700 -0.317369 0.537173 -0.143285 -0.095005 0.037567 0.051901 -0.291354 -0.058024 0.012951 0.029773 0.176124 -0.410742 -0.515803 0.264156 -0.106480 0.213895 -0.043784 0.066463 0.322646 -0.138096 -0.123898 0.177878 -0.400957 -0.187190 -0.272460 -0.135787 0.413529 0.291501 0.157451 -0.091244 0.075470 0.029528 -0.082215 -0.103345 0.289259 0.173193 -0.266363 0.501022 -0.082319 0.307025 -0.016679 0.029916 -0.025036 0.215084 0.093104 -0.334399 -0.093252 -0.185838 -0.618212 0.081241 -0.149826 0.329314 -0.406856 0.030969 -0.235952 0.055047 -0.018924 0.452047 -0.204320 0.003745 0.098420 -0.080829 0.037050 -0.260639 0.244314 0.015399 -0.210694 0.327279 0.059110 -0.018352 -0.072735 0.259266 -0.243656 -0.374373 -0.076118 0.197279 -0.006172 -0.482347 -0.214586 0.137915 0.060028 -0.184424 -0.340593 -0.193203 0.307217 0.068118 -0.238210 0.589301 -0.250193 0.152482 0.222125 0.314749 -0.024172 0.133432 -0.019124 -0.070462 0.440864 0.384312 -0.010214 
it 0.048622 -0.242465 0.403933 -0.109338 -0.074826 0.024984 0.037130 -0.222160 -0.040661 0.016512 0.019364 0.134828 -0.308482 -0.379633 0.197219 -0.080324 0.159502 -0.029922 0.048211 0.244330 -0.102773 -0.091004 0.133796 -0.297577 -0.139680 -0.204217 -0.099245 0.311692 0.216080 0.116414 -0.067167 0.060434 0.018585 -0.060693 -0.070226 0.217623 0.129339 -0.199754 0.377511 -0.058336 0.228968 -0.007311 0.013693 -0.021213 0.159087 0.072951 -0.255254 -0.068880 -0.132342 -0.460535 0.067321 -0.112906 0.248229 -0.304677 0.020314 -0.169333 0.042116 -0.010972 0.338799 -0.158539 0.001823 0.072766 -0.058723 0.019887 -0.194702 0.189672 0.010717 -0.163424 0.241273 0.046468 -0.016913 -0.050536 0.189608 -0.186064 -0.283215 -0.054677 0.142275 -0.004133 -0.362051 -0.158115 0.099815 0.040732 -0.133856 -0.254736 -0.143443 0.228423 0.055778 -0.177544 0.442234 -0.186564 0.116572 0.170100 0.236661 -0.018080 0.093055 -0.015847 -0.049236 0.335036 0.287658 -0.002394 
of 0.046340 -0.232231 0.396800 -0.104241 -0.073454 0.029777 0.036803 -0.220520 -0.038931 0.009983 0.025445 0.126363 -0.298351 -0.375240 0.194969 -0.080554 0.157305 -0.032795 0.051968 0.184775 -0.096782 -0.086146 0.131762 -0.287027 -0.141269 -0.198307 -0.095363 0.300738 0.219567 0.116672 -0.073006 0.059091 0.022633 -0.060335 -0.077005 0.214564 0.125600 -0.200632 0.365389 -0.054538 0.224358 -0.004702 0.016858 -0.024178 0.159939 0.071603 -0.242827 -0.062669 -0.139631 -0.455519 0.057066 -0.109812 0.236495 -0.300044 0.020277 -0.171196 0.040070 -0.018275 0.336485 -0.154603 0.002960 0.071710 -0.054636 0.021763 -0.192890 0.178877 0.005982 -0.159396 0.240368 0.041174 -0.018702 -0.051901 0.183498 -0.185477 -0.280028 -0.054026 0.141066 -0.012133 -0.350402 -0.162667 0.098465 0.043732 -0.130979 -0.255087 -0.143619 0.227288 0.055929 -0.168584 0.434524 -0.190661 0.108303 0.165231 0.237487 -0.011138 0.097364 -0.019647 -0.053746 0.325150 0.280520 -0.002319 
said 0.035884 -0.177179 0.299267 -0.083633 -0.049303 0.016839 0.029774 -0.164941 -0.027525 0.012394 0.011757 0.095593 -0.220668 -0.275676 0.143564 -0.061682 0.115191 -0.026237 0.038369 0.179121 -0.078248 -0.068097 0.094631 -0.217932 -0.106293 -0.153132 -0.071474 0.221044 0.164391 0.087967 -0.053468 0.044518 0.013264 -0.049608 -0.050451 0.159558 0.095520 -0.150734 0.270833 -0.039709 0.166115 -0.005505 0.008815 -0.020697 0.120960 0.045760 -0.182091 -0.052450 -0.096196 -0.337601 0.050941 -0.085990 0.180261 -0.227301 0.011499 -0.126918 0.032689 -0.012531 0.251595 -0.114877 0.006586 0.056375 -0.044019 0.013632 -0.140574 0.136702 0.006655 -0.115837 0.178898 0.035827 -0.008725 -0.045471 0.143830 -0.140153 -0.204919 -0.044560 0.105063 -0.000958 -0.264501 -0.116158 0.071611 0.030343 -0.096809 -0.185093 -0.110173 0.167506 0.038405 -0.127052 0.320876 -0.142598 0.081900 0.117687 0.177181 -0.009946 0.071797 -0.008322 -0.031046 0.245895 0.213274 -0.000877 
i 0.036121 -0.190525 0.325125 -0.084872 -0.056728 0.020008 0.035264 -0.173564 -0.027678 0.009537 0.017284 0.102482 -0.238318 -0.306566 0.153801 -0.060673 0.125330 -0.030531 0.039820 0.187423 -0.083932 -0.066822 0.107125 -0.239056 -0.110110 -0.162826 -0.076427 0.246936 0.172015 0.089664 -0.055866 0.043077 0.020981 -0.045855 -0.057974 0.168708 0.099042 -0.158714 0.292567 -0.050023 0.181724 -0.010399 0.013180 -0.016996 0.122957 0.056965 -0.199662 -0.051640 -0.111885 -0.364914 0.052628 -0.091136 0.189025 -0.242481 0.019540 -0.137355 0.034576 -0.009134 0.265886 -0.118244 -0.002210 0.053398 -0.041802 0.016099 -0.149821 0.150197 0.009287 -0.127025 0.187893 0.035013 -0.013578 -0.048916 0.147241 -0.145171 -0.221629 -0.040248 0.118582 -0.010275 -0.279156 -0.127135 0.082693 0.030948 -0.106891 -0.203443 -0.109898 0.182628 0.039771 -0.134812 0.342645 -0.146919 0.086795 0.130771 0.189838 -0.008361 0.079166 -0.014134 -0.045059 0.265290 0.229312 -0.000676 
alice 0.031195 -0.197670 0.327222 -0.090311 -0.056658 0.023542 0.034363 -0.176724 -0.034327 0.006673 0.013986 0.104397 -0.247471 -0.315221 0.157569 -0.068086 0.130975 -0.023137 0.039998 0.198373 -0.084998 -0.077645 0.101676 -0.242077 -0.118551 -0.165970 -0.083005 0.254902 0.175813 0.096759 -0.054307 0.045068 0.013299 -0.047068 -0.059272 0.179517 0.104535 -0.161984 0.308267 -0.045533 0.183157 -0.008273 0.018128 -0.019350 0.128418 0.060479 -0.206258 -0.051109 -0.108672 -0.372298 0.055467 -0.095417 0.200538 -0.243669 0.014196 -0.138334 0.026720 -0.006778 0.273811 -0.125224 0.003437 0.056719 -0.044042 0.019500 -0.162979 0.148038 0.006998 -0.127362 0.195999 0.035710 -0.009887 -0.048219 0.160057 -0.153759 -0.233376 -0.041637 0.115169 -0.006788 -0.297927 -0.133852 0.085211 0.036608 -0.114976 -0.207253 -0.112682 0.185423 0.038865 -0.146997 0.360911 -0.158670 0.093204 0.139102 0.198355 -0.010738 0.075665 -0.008847 -0.045533 0.268091 0.239477 -0.000708 
in 0.051428 -0.300248 0.500774 -0.130344 -0.088960 0.035434 0.057158 -0.269967 -0.056099 0.016108 0.024101 0.163518 -0.372357 -0.477048 0.247174 -0.097162 0.192056 -0.045092 0.062722 0.302483 -0.125778 -0.114083 0.163576 -0.370328 -0.178048 -0.249318 -0.124116 0.382042 0.267286 0.144266 -0.082529 0.067899 0.024466 -0.076651 -0.090386 0.270684 0.159172 -0.251177 0.459893 -0.069967 0.288371 -0.006932 0.018257 -0.028129 0.191132 0.086255 -0.314242 -0.083097 -0.166106 -0.570675 0.077256 -0.142285 0.305425 -0.381252 0.025064 -0.208120 0.051241 -0.013002 0.423777 -0.194355 0.004492 0.087358 -0.070385 0.027116 -0.241769 0.232204 0.008461 -0.201211 0.299936 0.053734 -0.023283 -0.071048 0.232075 -0.225789 -0.349447 -0.068211 0.177703 -0.005257 -0.448999 -0.201181 0.123936 0.053438 -0.167327 -0.317528 -0.178163 0.283061 0.068532 -0.222677 0.541764 -0.233356 0.143407 0.207846 0.296709 -0.014981 0.121123 -0.020489 -0.064916 0.412344 0.360144 -0.005048 
you 0.048058 -0.262279 0.449233 -0.116139 -0.085257 0.028658 0.044946 -0.246442 -0.045640 0.015586 0.023592 0.148411 -0.330272 -0.423032 0.221311 -0.086958 0.173900 -0.039013 0.057163 0.262608 -0.117661 -0.099855 0.143789 -0.328595 -0.152793 -0.227756 -0.109465 0.343312 0.240547 0.130950 -0.077759 0.062632 0.025699 -0.067619 -0.077892 0.241602 0.138434 -0.225835 0.413555 -0.061995 0.256630 -0.006738 0.019682 -0.029180 0.176211 0.073605 -0.276148 -0.075893 -0.149422 -0.506634 0.074215 -0.128166 0.272346 -0.333373 0.025984 -0.192755 0.040296 -0.015618 0.376440 -0.173010 0.005106 0.079172 -0.059446 0.029861 -0.211002 0.201766 0.009674 -0.179342 0.265219 0.048022 -0.016232 -0.056968 0.208880 -0.204729 -0.305535 -0.062084 0.158816 -0.005775 -0.393272 -0.173834 0.115606 0.048870 -0.147784 -0.287569 -0.159335 0.245000 0.060394 -0.194347 0.485945 -0.209843 0.122089 0.184368 0.265814 -0.013272 0.109767 -0.017445 -0.050552 0.367574 0.321435 -0.002964 
was 0.053729 -0.288127 0.486917 -0.133313 -0.087575 0.035847 0.046924 -0.268781 -0.053685 0.008860 0.025660 0.156760 -0.371536 -0.461559 0.235463 -0.095977 0.187143 -0.043432 0.058753 0.292844 -0.126054 -0.107903 0.161098 -0.362871 -0.174260 -0.249434 -0.118470 0.369568 0.259772 0.137738 -0.084067 0.069382 0.022624 -0.073154 -0.088239 0.264952 0.151547 -0.245469 0.451793 -0.072972 0.282124 -0.012290 0.025813 -0.025157 0.190886 0.080370 -0.303870 -0.078793 -0.168792 -0.558131 0.071392 -0.130557 0.296802 -0.371783 0.027675 -0.205357 0.047587 -0.019497 0.410354 -0.188921 0.005066 0.086279 -0.065169 0.023530 -0.235280 0.221651 0.008886 -0.186865 0.294780 0.050536 -0.015356 -0.065713 0.234529 -0.222804 -0.338280 -0.064075 0.178721 -0.005969 -0.437113 -0.187502 0.116425 0.054752 -0.166923 -0.304657 -0.174507 0.273636 0.062241 -0.210479 0.533709 -0.233534 0.131442 0.203716 0.292078 -0.020482 0.119471 -0.017210 -0.057283 0.395058 0.348895 -0.009857 
that 0.044414 -0.248990 0.417165 -0.113316 -0.071842 0.023649 0.039089 -0.225037 -0.045911 0.009056 0.019806 0.131303 -0.315682 -0.395635 0.202717 -0.080220 0.156984 -0.030352 0.051546 0.241459 -0.105468 -0.088301 0.131552 -0.302745 -0.146887 -0.204938 -0.102245 0.316593 0.223884 0.120453 -0.072726 0.059795 0.019706 -0.059817 -0.079591 0.219010 0.135319 -0.202892 0.377865 -0.059925 0.236727 -0.009905 0.014408 -0.020597 0.158485 0.071610 -0.259486 -0.072907 -0.136918 -0.476804 0.060157 -0.113065 0.247425 -0.314456 0.016993 -0.173635 0.043637 -0.013183 0.348381 -0.158561 0.008853 0.078338 -0.054872 0.026621 -0.203419 0.188889 0.004102 -0.162441 0.253209 0.043531 -0.016495 -0.053269 0.193253 -0.190906 -0.290977 -0.055648 0.147013 -0.004213 -0.369392 -0.166097 0.104902 0.039274 -0.144306 -0.262150 -0.146018 0.235121 0.054051 -0.183699 0.450119 -0.191422 0.119798 0.167797 0.246121 -0.012007 0.102169 -0.010980 -0.048324 0.342289 0.297245 -0.009536 
as 0.033467 -0.201985 0.344546 -0.093305 -0.059406 0.018338 0.033096 -0.183281 -0.036630 0.012057 0.015442 0.113479 -0.256914 -0.322423 0.161438 -0.062695 0.131546 -0.024226 0.042260 0.207030 -0.090921 -0.079853 0.106213 -0.255521 -0.122900 -0.170488 -0.083685 0.261687 0.187427 0.103907 -0.058680 0.051967 0.017501 -0.050843 -0.064443 0.180237 0.107223 -0.167112 0.316815 -0.052865 0.195189 -0.007163 0.015330 -0.019539 0.134373 0.056630 -0.213594 -0.058702 -0.119876 -0.386419 0.056021 -0.089924 0.210873 -0.261403 0.020313 -0.148316 0.028882 -0.012851 0.287895 -0.133232 0.005757 0.066293 -0.050922 0.016679 -0.162382 0.157582 0.008043 -0.135238 0.201756 0.034116 -0.012662 -0.050592 0.165554 -0.160370 -0.239878 -0.047543 0.123338 -0.004303 -0.306336 -0.137515 0.089845 0.037548 -0.112790 -0.218225 -0.120740 0.187514 0.040462 -0.147054 0.375657 -0.158154 0.091153 0.141188 0.203765 -0.010449 0.080742 -0.010874 -0.047636 0.277030 0.243295 -0.000632 
her 0.043395 -0.266867 0.445947 -0.123751 -0.083942 0.028949 0.049829 -0.240366 -0.045955 0.015964 0.025509 0.146197 -0.333824 -0.428698 0.217876 -0.091984 0.173120 -0.036373 0.061620 0.266869 -0.110637 -0.102636 0.143383 -0.333684 -0.155768 -0.227580 -0.112999 0.343469 0.243009 0.133061 -0.075499 0.064224 0.028613 -0.068763 -0.085217 0.242246 0.144259 -0.222116 0.417376 -0.064780 0.256559 -0.005657 0.023819 -0.029154 0.178942 0.078307 -0.277191 -0.081171 -0.154570 -0.516750 0.068124 -0.123989 0.276498 -0.341967 0.018438 -0.187100 0.047997 -0.013518 0.377352 -0.172329 0.009252 0.077473 -0.061321 0.030163 -0.212583 0.204420 0.003799 -0.177920 0.266795 0.050199 -0.020615 -0.060811 0.215857 -0.203080 -0.314848 -0.058244 0.165784 -0.003337 -0.401945 -0.180202 0.111275 0.047001 -0.154859 -0.280801 -0.157485 0.249173 0.058923 -0.200113 0.484906 -0.207793 0.122880 0.181945 0.264476 -0.019220 0.103830 -0.018904 -0.053865 0.361920 0.319158 -0.006753 
at 0.043603 -0.229320 0.387362 -0.101513 -0.075407 0.023091 0.038761 -0.205412 -0.035854 0.015528 0.020422 0.129429 -0.292879 -0.368753 0.191834 -0.075201 0.154594 -0.027410 0.048421 0.231096 -0.099538 -0.081564 0.127105 -0.289856 -0.142347 -0.198146 -0.096286 0.290952 0.213970 0.111956 -0.071984 0.056488 0.019874 -0.062365 -0.074619 0.206474 0.121119 -0.191108 0.353794 -0.056342 0.224838 -0.005932 0.017710 -0.017514 0.151504 0.064429 -0.236018 -0.064254 -0.136130 -0.442068 0.064653 -0.110613 0.239423 -0.289694 0.021349 -0.169446 0.039227 -0.008802 0.331538 -0.153568 0.008166 0.074615 -0.056287 0.022177 -0.190381 0.179327 0.007486 -0.154317 0.235979 0.036680 -0.017232 -0.055531 0.180325 -0.177757 -0.266480 -0.057469 0.141298 -0.010894 -0.343936 -0.148304 0.095312 0.045945 -0.128104 -0.247827 -0.141432 0.217727 0.048199 -0.168407 0.420107 -0.183503 0.103719 0.159208 0.225279 -0.010014 0.091119 -0.016881 -0.045858 0.312355 0.276011 -0.005153 
on 0.038960 -0.239147 0.393431 -0.107520 -0.073456 0.030094 0.043556 -0.213807 -0.040336 0.009786 0.022932 0.129757 -0.297467 -0.380423 0.193637 -0.074633 0.154980 -0.028786 0.047766 0.233205 -0.104326 -0.083438 0.131192 -0.293302 -0.141634 -0.197046 -0.091613 0.303371 0.214886 0.110848 -0.066566 0.059266 0.024084 -0.055732 -0.070976 0.212283 0.128496 -0.199419 0.363381 -0.058537 0.229983 -0.006390 0.020735 -0.019805 0.159804 0.062170 -0.244091 -0.069088 -0.137384 -0.454042 0.056493 -0.112278 0.235147 -0.303325 0.016328 -0.172431 0.040003 -0.012460 0.337902 -0.154455 0.000472 0.077890 -0.054085 0.026482 -0.192407 0.183021 0.009408 -0.158128 0.233045 0.041709 -0.018047 -0.052126 0.185204 -0.186007 -0.271187 -0.050078 0.142080 -0.003197 -0.351971 -0.158413 0.102859 0.040602 -0.137603 -0.250048 -0.137529 0.217637 0.057477 -0.171345 0.435352 -0.189026 0.110037 0.160978 0.230668 -0.013186 0.089845 -0.010639 -0.045347 0.320217 0.278409 -0.006290 
all 0.041355 -0.225403 0.373302 -0.104556 -0.066766 0.028774 0.043320 -0.205294 -0.036877 0.009020 0.022719 0.124726 -0.284678 -0.361207 0.179313 -0.074680 0.150687 -0.026555 0.046760 0.220348 -0.096248 -0.083095 0.124155 -0.277402 -0.134626 -0.192822 -0.094288 0.287280 0.204555 0.109312 -0.069177 0.053084 0.016026 -0.062694 -0.071993 0.206526 0.115584 -0.185422 0.346482 -0.056690 0.211370 -0.003401 0.018118 -0.022231 0.145988 0.069173 -0.234615 -0.066140 -0.123484 -0.429993 0.057581 -0.108093 0.232317 -0.282885 0.019146 -0.165500 0.035231 -0.011998 0.321837 -0.149710 0.001489 0.069331 -0.050261 0.019879 -0.179784 0.173598 0.002658 -0.153330 0.227392 0.039036 -0.017313 -0.050513 0.181520 -0.176587 -0.268558 -0.055326 0.141111 -0.007020 -0.337555 -0.148431 0.090136 0.034702 -0.123154 -0.240481 -0.134668 0.214108 0.052907 -0.160374 0.410616 -0.176402 0.099688 0.153834 0.218616 -0.013455 0.085071 -0.017158 -0.049471 0.313196 0.268130 -0.005292 
with 0.030114 -0.181499 0.314601 -0.086277 -0.056721 0.017996 0.036873 -0.168373 -0.028526 0.011221 0.020731 0.096719 -0.235437 -0.295455 0.145635 -0.065010 0.115891 -0.024808 0.042236 0.177625 -0.076505 -0.066411 0.103138 -0.224409 -0.103645 -0.157637 -0.070633 0.236004 0.171304 0.086186 -0.057626 0.039175 0.020526 -0.043810 -0.059494 0.169644 0.093138 -0.157939 0.284943 -0.049778 0.178150 -0.002747 0.018053 -0.021522 0.121508 0.050760 -0.189059 -0.048741 -0.102439 -0.355474 0.045464 -0.084833 0.190998 -0.232760 0.011612 -0.132317 0.034065 -0.007085 0.256301 -0.123929 0.004570 0.050956 -0.041665 0.015237 -0.148109 0.145888 0.010291 -0.124624 0.190026 0.035555 -0.011963 -0.037719 0.147228 -0.136379 -0.215565 -0.044348 0.113198 -0.009168 -0.279866 -0.126164 0.075683 0.032731 -0.109632 -0.197217 -0.112146 0.167854 0.035276 -0.135576 0.339061 -0.148470 0.090548 0.131057 0.182787 -0.007439 0.076360 -0.010747 -0.040420 0.256624 0.215963 -0.002973 
had 0.027293 -0.140295 0.229309 -0.066163 -0.040599 0.016949 0.024122 -0.122302 -0.028571 0.010163 0.013681 0.076484 -0.177613 -0.218047 0.115310 -0.046091 0.090859 -0.019746 0.027921 0.142784 -0.054689 -0.052000 0.074098 -0.174445 -0.083717 -0.118137 -0.058130 0.174534 0.122702 0.065968 -0.035912 0.029934 0.014723 -0.035214 -0.042698 0.125743 0.076524 -0.118149 0.213606 -0.031723 0.132230 -0.006781 0.008484 -0.012975 0.087873 0.042006 -0.141421 -0.035096 -0.083668 -0.263183 0.035904 -0.066013 0.138017 -0.177120 0.010961 -0.098058 0.022062 -0.004900 0.196192 -0.092999 -0.003714 0.047023 -0.033743 0.012763 -0.110301 0.108072 0.003238 -0.091525 0.143729 0.027070 -0.008297 -0.027417 0.115118 -0.104084 -0.165250 -0.030652 0.090707 -0.000847 -0.206755 -0.090246 0.058967 0.027820 -0.083978 -0.147783 -0.086298 0.127598 0.026088 -0.102131 0.250999 -0.113033 0.061726 0.095548 0.141921 -0.012084 0.053890 -0.006449 -0.027584 0.191529 0.168366 -0.002174 
but 0.034881 -0.204382 0.353570 -0.096020 -0.064105 0.026111 0.037559 -0.195863 -0.031571 0.007358 0.021716 0.117445 -0.269418 -0.334743 0.168407 -0.066543 0.136974 -0.024876 0.040948 0.209633 -0.090911 -0.081191 0.112887 -0.262286 -0.120286 -0.180723 -0.081303 0.269232 0.192832 0.101303 -0.060470 0.053366 0.018500 -0.059313 -0.060397 0.185870 0.107237 -0.172605 0.327385 -0.048436 0.195480 -0.003816 0.016640 -0.023434 0.140801 0.056454 -0.215037 -0.061346 -0.115802 -0.403960 0.058513 -0.102874 0.214278 -0.261588 0.015343 -0.154157 0.029256 -0.016127 0.302003 -0.136609 0.006265 0.067866 -0.053757 0.022576 -0.166606 0.165533 0.011195 -0.141621 0.213869 0.039026 -0.016672 -0.043566 0.162997 -0.165938 -0.241042 -0.045753 0.125929 -0.004799 -0.317288 -0.143097 0.085539 0.037610 -0.122925 -0.221330 -0.123066 0.199974 0.048015 -0.156022 0.380807 -0.162961 0.098716 0.148924 0.204010 -0.014673 0.080718 -0.010522 -0.047486 0.289577 0.252004 -0.002686 
for 0.047395 -0.268716 0.447258 -0.121573 -0.083550 0.025953 0.050615 -0.240200 -0.050447 0.015594 0.028635 0.143783 -0.334555 -0.423847 0.222430 -0.084050 0.178713 -0.040714 0.059011 0.269231 -0.115006 -0.101763 0.147412 -0.328779 -0.159905 -0.225548 -0.106942 0.338400 0.244090 0.134478 -0.076853 0.060605 0.022823 -0.067568 -0.085437 0.245071 0.140924 -0.227532 0.411828 -0.068582 0.257995 -0.015196 0.019281 -0.019995 0.172442 0.076250 -0.278353 -0.078826 -0.153674 -0.510766 0.066851 -0.122363 0.273587 -0.335768 0.023530 -0.191401 0.044494 -0.015335 0.381064 -0.170509 0.001412 0.079154 -0.065888 0.025361 -0.217759 0.207855 0.008814 -0.171414 0.270816 0.052381 -0.019388 -0.058853 0.213677 -0.201211 -0.314177 -0.059261 0.163951 -0.011245 -0.399349 -0.173247 0.114103 0.047439 -0.155170 -0.281491 -0.155802 0.254267 0.063327 -0.193083 0.481808 -0.214431 0.125296 0.186385 0.266808 -0.019118 0.106581 -0.014933 -0.060078 0.368523 0.319494 -0.007166 
so 0.038091 -0.231140 0.384514 -0.102045 -0.068881 0.026335 0.044427 -0.206530 -0.041457 0.012197 0.024247 0.130332 -0.295808 -0.369707 0.192785 -0.076321 0.149466 -0.029005 0.052915 0.227558 -0.097856 -0.081806 0.127773 -0.288460 -0.137460 -0.198042 -0.096034 0.295878 0.215135 0.114316 -0.064594 0.058037 0.021958 -0.055870 -0.073924 0.211633 0.124295 -0.197156 0.361506 -0.056815 0.214977 -0.012327 0.021993 -0.023716 0.153939 0.062798 -0.244565 -0.068715 -0.129140 -0.441996 0.059496 -0.110150 0.231844 -0.294239 0.021637 -0.161996 0.033245 -0.007818 0.328608 -0.152053 -0.000337 0.067089 -0.052012 0.026618 -0.190697 0.182557 0.002984 -0.153281 0.233643 0.041488 -0.017069 -0.055285 0.186527 -0.180796 -0.270495 -0.049335 0.137039 -0.005515 -0.341272 -0.156058 0.094734 0.037415 -0.133425 -0.247611 -0.137181 0.218458 0.046959 -0.167295 0.425100 -0.183219 0.109031 0.161264 0.226551 -0.012477 0.091948 -0.017709 -0.048009 0.322708 0.276193 -0.007440 
be 0.059901 -0.311696 0.529332 -0.142884 -0.095375 0.029080 0.058231 -0.282551 -0.050771 0.008762 0.025019 0.173234 -0.392276 -0.502129 0.261876 -0.097362 0.202334 -0.042328 0.062595 0.317001 -0.131052 -0.112613 0.164859 -0.390021 -0.188614 -0.261802 -0.128310 0.404990 0.283266 0.156006 -0.094910 0.071934 0.034022 -0.080190 -0.098213 0.285946 0.166701 -0.260389 0.487459 -0.080703 0.300028 -0.013538 0.020109 -0.029285 0.207806 0.092363 -0.330552 -0.086470 -0.175069 -0.601594 0.083491 -0.146428 0.322052 -0.403759 0.022490 -0.227383 0.051450 -0.023157 0.441680 -0.204095 0.008892 0.094986 -0.073585 0.035523 -0.256027 0.240279 0.013227 -0.208286 0.314821 0.055905 -0.019052 -0.070167 0.247772 -0.245073 -0.368056 -0.073140 0.188967 -0.007631 -0.465910 -0.204416 0.135086 0.052540 -0.177042 -0.335981 -0.186988 0.290875 0.071735 -0.231146 0.577023 -0.245989 0.145774 0.220325 0.313625 -0.016331 0.127127 -0.017516 -0.065712 0.436906 0.379432 -0.007373 
not 0.044971 -0.264958 0.451921 -0.120608 -0.086817 0.024118 0.048591 -0.240792 -0.042517 0.011332 0.018837 0.144449 -0.338138 -0.426415 0.218927 -0.085956 0.175445 -0.033515 0.060465 0.271757 -0.118719 -0.099164 0.141580 -0.333048 -0.159649 -0.234032 -0.112450 0.347089 0.249473 0.129238 -0.082655 0.066050 0.024172 -0.063821 -0.087164 0.243527 0.147416 -0.223095 0.412100 -0.065070 0.258979 -0.013410 0.026074 -0.028204 0.177746 0.081327 -0.278813 -0.079110 -0.152468 -0.514341 0.072005 -0.123283 0.273616 -0.344285 0.023270 -0.196308 0.040888 -0.019907 0.377980 -0.176018 0.002194 0.083872 -0.068637 0.026717 -0.216532 0.211346 0.006719 -0.181760 0.271472 0.044536 -0.021213 -0.062085 0.216578 -0.206071 -0.314978 -0.063340 0.162075 -0.012495 -0.399745 -0.176095 0.117745 0.052352 -0.148836 -0.282013 -0.166356 0.250748 0.060000 -0.197648 0.486294 -0.207849 0.118977 0.181212 0.269244 -0.016259 0.107542 -0.017117 -0.053546 0.371804 0.324966 -0.011666 
very 0.054367 -0.285584 0.473128 -0.123909 -0.086432 0.035565 0.049252 -0.257983 -0.048089 0.006564 0.028566 0.157261 -0.363042 -0.456676 0.233661 -0.094473 0.186019 -0.038980 0.067477 0.284447 -0.124416 -0.105612 0.151539 -0.354094 -0.169019 -0.240699 -0.112798 0.366538 0.261710 0.138339 -0.078870 0.062437 0.032519 -0.074990 -0.088955 0.252963 0.151427 -0.241887 0.443182 -0.069735 0.271618 -0.008253 0.024656 -0.026293 0.186200 0.076575 -0.298098 -0.083909 -0.164611 -0.541788 0.070071 -0.130936 0.285014 -0.363346 0.019889 -0.204588 0.050586 -0.020655 0.401004 -0.186831 0.002814 0.090222 -0.066267 0.028624 -0.232105 0.214820 0.006019 -0.189237 0.286053 0.055591 -0.015555 -0.066115 0.227365 -0.218921 -0.334911 -0.070050 0.173801 -0.005572 -0.424952 -0.188591 0.121819 0.047309 -0.161502 -0.301806 -0.172358 0.265243 0.062263 -0.211975 0.518528 -0.224721 0.134711 0.191111 0.282211 -0.022443 0.118644 -0.019713 -0.062492 0.392617 0.341028 -0.005222 
what 0.023592 -0.112991 0.193525 -0.048242 -0.031385 0.014965 0.017694 -0.106650 -0.022909 0.005139 0.012965 0.063256 -0.144049 -0.178404 0.096899 -0.033274 0.074252 -0.015149 0.024924 0.109570 -0.050455 -0.040002 0.062455 -0.141657 -0.071850 -0.099707 -0.044407 0.146263 0.103776 0.053685 -0.032883 0.022474 0.007064 -0.032728 -0.031528 0.100594 0.056463 -0.091113 0.180198 -0.026179 0.109465 -0.009950 0.012941 -0.010867 0.074425 0.029800 -0.117263 -0.031096 -0.062575 -0.217918 0.034293 -0.053366 0.112886 -0.139948 0.014280 -0.077706 0.018918 -0.011135 0.156933 -0.070559 0.005972 0.035789 -0.032098 0.015210 -0.093313 0.087427 0.004769 -0.077581 0.113712 0.025357 -0.002646 -0.027898 0.086468 -0.089648 -0.133033 -0.027483 0.066042 -0.004905 -0.165456 -0.073309 0.051618 0.017410 -0.061756 -0.126477 -0.073159 0.110280 0.029222 -0.081103 0.204072 -0.088202 0.049201 0.077444 0.110227 -0.006477 0.043280 -0.011786 -0.022804 0.157813 0.141591 -0.000862 
this 0.044054 -0.219123 0.375545 -0.101217 -0.066003 0.023285 0.042070 -0.198818 -0.041932 0.009175 0.023069 0.116025 -0.281757 -0.351971 0.182745 -0.067702 0.149824 -0.030462 0.046641 0.225211 -0.091836 -0.085181 0.119769 -0.273634 -0.129613 -0.186667 -0.087525 0.285851 0.197352 0.109580 -0.061306 0.048117 0.018846 -0.058511 -0.073486 0.201099 0.116212 -0.187644 0.344650 -0.053106 0.207247 -0.010075 0.013962 -0.018257 0.149215 0.059241 -0.227897 -0.066470 -0.121957 -0.428682 0.059081 -0.104594 0.226155 -0.280296 0.020078 -0.154847 0.032977 -0.013635 0.318697 -0.146072 0.004021 0.065280 -0.054793 0.017752 -0.175231 0.173544 0.011565 -0.148697 0.218418 0.035479 -0.011611 -0.050743 0.172492 -0.166125 -0.262988 -0.049776 0.131882 -0.009998 -0.330308 -0.145063 0.088606 0.038054 -0.131039 -0.240213 -0.135262 0.211101 0.047216 -0.162549 0.406623 -0.172441 0.106124 0.152306 0.215394 -0.009223 0.087717 -0.016384 -0.047417 0.310344 0.264222 -0.008059 
they 0.035503 -0.174712 0.298371 -0.076591 -0.056347 0.016569 0.032777 -0.155859 -0.026590 0.005766 0.018531 0.096850 -0.224788 -0.280629 0.142845 -0.060295 0.109879 -0.023514 0.037370 0.175367 -0.076200 -0.067882 0.091113 -0.213713 -0.103941 -0.150025 -0.067343 0.227935 0.157145 0.081114 -0.054477 0.039950 0.018269 -0.041855 -0.056516 0.157346 0.092070 -0.146858 0.276230 -0.042630 0.166768 -0.011129 0.016592 -0.013028 0.114247 0.051168 -0.187904 -0.048778 -0.096391 -0.337886 0.043911 -0.080954 0.176042 -0.224462 0.009960 -0.124533 0.026296 -0.010236 0.245120 -0.113570 0.006229 0.058083 -0.038984 0.022468 -0.140681 0.131427 0.004590 -0.117859 0.178924 0.032639 -0.012064 -0.041523 0.135333 -0.134507 -0.209032 -0.042654 0.107889 -0.006921 -0.264552 -0.118523 0.077981 0.036289 -0.099144 -0.190172 -0.102281 0.164730 0.038482 -0.126905 0.325691 -0.139450 0.086517 0.124169 0.175215 -0.009143 0.074207 -0.008512 -0.036291 0.237339 0.217285 -0.002976 
little 0.042423 -0.215871 0.366446 -0.097055 -0.063217 0.018876 0.034552 -0.201944 -0.033823 0.014546 0.016241 0.115944 -0.270495 -0.346352 0.176901 -0.074805 0.142397 -0.034737 0.045799 0.212682 -0.091660 -0.083134 0.113712 -0.271139 -0.130652 -0.189393 -0.087409 0.272570 0.198306 0.108103 -0.066837 0.046465 0.017080 -0.058149 -0.067223 0.190494 0.116155 -0.183672 0.337619 -0.055533 0.204579 -0.011462 0.019405 -0.016943 0.146146 0.061690 -0.221164 -0.062749 -0.123991 -0.412072 0.052659 -0.099720 0.221609 -0.279995 0.024086 -0.161545 0.033533 -0.012630 0.310165 -0.140630 0.006322 0.066543 -0.047815 0.024626 -0.172068 0.171351 0.012752 -0.139307 0.217166 0.037146 -0.011971 -0.047674 0.173300 -0.167042 -0.250979 -0.051621 0.136459 -0.006546 -0.317292 -0.141411 0.091810 0.036541 -0.126057 -0.230209 -0.132676 0.203542 0.047302 -0.162088 0.392692 -0.171415 0.101405 0.148193 0.218697 -0.010036 0.082406 -0.018269 -0.048432 0.293227 0.264661 -0.009824 
he 0.039845 -0.231551 0.386761 -0.104128 -0.074144 0.025195 0.039564 -0.210515 -0.043100 0.008405 0.021315 0.126843 -0.290579 -0.368232 0.192819 -0.069437 0.147857 -0.029549 0.047482 0.228380 -0.100207 -0.085654 0.127708 -0.283663 -0.140811 -0.199399 -0.097633 0.295309 0.210466 0.109745 -0.068189 0.053065 0.019311 -0.054804 -0.068292 0.206067 0.124168 -0.194407 0.355679 -0.054421 0.218178 -0.002813 0.019472 -0.018089 0.151938 0.065557 -0.241923 -0.063844 -0.132733 -0.437340 0.063856 -0.109868 0.233677 -0.294473 0.022321 -0.160240 0.035124 -0.016815 0.325144 -0.151995 0.000997 0.066554 -0.055309 0.020206 -0.186499 0.176259 0.008120 -0.148859 0.228499 0.036670 -0.020288 -0.054739 0.185416 -0.177757 -0.270977 -0.055975 0.141295 -0.009496 -0.347780 -0.153019 0.095846 0.043364 -0.126723 -0.248742 -0.137164 0.219170 0.049446 -0.167009 0.421396 -0.177679 0.107087 0.158687 0.232091 -0.009004 0.088121 -0.015830 -0.048756 0.318346 0.281245 -0.005479 
out 0.063155 -0.323711 0.544680 -0.148942 -0.103018 0.036699 0.059676 -0.291033 -0.052376 0.019832 0.029349 0.179511 -0.409379 -0.519148 0.267268 -0.104793 0.213512 -0.048562 0.067927 0.325127 -0.142340 -0.120166 0.169890 -0.396844 -0.191715 -0.275434 -0.134720 0.418468 0.296742 0.162030 -0.090788 0.074739 0.031568 -0.081030 -0.103688 0.291274 0.173278 -0.269826 0.503398 -0.083261 0.305266 -0.011332 0.023759 -0.031268 0.217079 0.097233 -0.334153 -0.094599 -0.180974 -0.623463 0.090004 -0.154757 0.331739 -0.415621 0.023375 -0.231197 0.051087 -0.013957 0.464038 -0.213250 0.009872 0.101259 -0.078628 0.034812 -0.261473 0.253383 0.011825 -0.210046 0.321116 0.059692 -0.019307 -0.074019 0.257757 -0.246521 -0.376539 -0.078239 0.192590 -0.013211 -0.483356 -0.219366 0.134727 0.056097 -0.189115 -0.343894 -0.198495 0.304196 0.074785 -0.236546 0.589724 -0.261989 0.148984 0.223856 0.319197 -0.019698 0.129804 -0.021071 -0.069677 0.448804 0.389982 -0.004621 
is 0.026715 -0.141405 0.238661 -0.066611 -0.039273 0.018545 0.019445 -0.129258 -0.025624 0.005422 0.017139 0.076008 -0.174464 -0.227637 0.118181 -0.042701 0.093022 -0.019957 0.024803 0.144940 -0.063148 -0.056263 0.072252 -0.170293 -0.083830 -0.123622 -0.061000 0.177785 0.125487 0.067636 -0.045388 0.036557 0.010201 -0.033198 -0.044903 0.122418 0.071525 -0.114747 0.218854 -0.031064 0.136335 -0.006567 0.014872 -0.017917 0.089087 0.042066 -0.149367 -0.044001 -0.082938 -0.269840 0.040356 -0.064715 0.139583 -0.174058 0.012952 -0.101175 0.027285 -0.008951 0.195930 -0.091351 -0.000062 0.047465 -0.036717 0.012794 -0.108796 0.104090 0.004425 -0.092884 0.143917 0.025442 -0.006364 -0.030916 0.108073 -0.111546 -0.165576 -0.028641 0.087586 -0.007635 -0.204838 -0.091303 0.054748 0.020372 -0.083303 -0.148765 -0.087467 0.133103 0.031313 -0.104338 0.255418 -0.111011 0.060521 0.092513 0.137456 -0.010780 0.058484 -0.012661 -0.027737 0.189795 0.164518 -0.007122 
one 0.047877 -0.278567 0.462456 -0.120853 -0.081567 0.031532 0.047377 -0.254508 -0.049726 0.010605 0.023548 0.150470 -0.343183 -0.437312 0.220898 -0.086200 0.176302 -0.043140 0.054458 0.274791 -0.112483 -0.101820 0.146780 -0.334261 -0.163159 -0.232513 -0.107158 0.349433 0.249003 0.130066 -0.082293 0.058906 0.029690 -0.071764 -0.080416 0.244165 0.143456 -0.234380 0.430488 -0.064572 0.265420 -0.011139 0.020739 -0.020655 0.182580 0.082730 -0.284514 -0.078694 -0.157287 -0.527787 0.069492 -0.130780 0.280808 -0.350004 0.020612 -0.199650 0.045914 -0.016547 0.390574 -0.177726 0.003311 0.088022 -0.069648 0.024757 -0.219286 0.211208 0.013138 -0.177111 0.280517 0.047757 -0.022942 -0.061804 0.219512 -0.212842 -0.317365 -0.063834 0.167598 -0.012459 -0.408212 -0.183220 0.116506 0.047276 -0.153359 -0.297210 -0.167186 0.263122 0.062046 -0.199734 0.504976 -0.221310 0.123981 0.188067 0.270383 -0.016818 0.108294 -0.014160 -0.058624 0.377383 0.328714 -0.001680 
down 0.038447 -0.206725 0.347467 -0.090183 -0.064026 0.016983 0.031180 -0.188908 -0.035079 0.004884 0.014910 0.112563 -0.253732 -0.330177 0.164230 -0.069397 0.138776 -0.029161 0.045138 0.203644 -0.090993 -0.073603 0.114823 -0.253560 -0.124691 -0.168823 -0.085799 0.264743 0.184239 0.098127 -0.061558 0.045230 0.018123 -0.055925 -0.067368 0.180475 0.105336 -0.171671 0.319437 -0.048540 0.195516 -0.004027 0.015276 -0.022586 0.133681 0.062265 -0.209142 -0.054916 -0.113847 -0.391352 0.051348 -0.095216 0.209907 -0.263273 0.016110 -0.144097 0.031329 -0.016081 0.292131 -0.129470 -0.000437 0.066885 -0.043867 0.024850 -0.167971 0.160716 0.011773 -0.130572 0.202197 0.039907 -0.010825 -0.051327 0.163730 -0.158339 -0.243165 -0.052045 0.126610 -0.006446 -0.307892 -0.134442 0.088291 0.038682 -0.118743 -0.213285 -0.118821 0.192201 0.043707 -0.151403 0.372693 -0.167496 0.098674 0.140048 0.199753 -0.014081 0.078537 -0.009637 -0.046694 0.279407 0.245492 0.000043 
up 0.027756 -0.169417 0.295122 -0.074348 -0.051567 0.022165 0.029917 -0.162658 -0.034274 0.009145 0.012981 0.097798 -0.219822 -0.279019 0.139261 -0.054680 0.113748 -0.025476 0.040792 0.172489 -0.073362 -0.060975 0.092472 -0.218329 -0.108173 -0.146667 -0.067893 0.220396 0.154899 0.085418 -0.052290 0.038547 0.012670 -0.042171 -0.058291 0.161850 0.097349 -0.150390 0.268983 -0.041945 0.168964 -0.002874 0.016424 -0.017996 0.116647 0.046674 -0.184247 -0.047036 -0.104490 -0.337025 0.040615 -0.080170 0.180767 -0.222165 0.013541 -0.125789 0.025738 -0.009282 0.243812 -0.110805 -0.002092 0.054855 -0.037929 0.012151 -0.144239 0.134887 0.011013 -0.116065 0.173587 0.028175 -0.009826 -0.040371 0.137473 -0.130668 -0.201538 -0.035219 0.107113 -0.003036 -0.264677 -0.119176 0.074822 0.035915 -0.097182 -0.187966 -0.108104 0.168638 0.034697 -0.125269 0.316915 -0.138296 0.085097 0.122788 0.169058 -0.010919 0.074839 -0.015588 -0.038988 0.237254 0.209268 -0.007863 
if 0.038497 -0.217417 0.376167 -0.098964 -0.064558 0.025384 0.038502 -0.207665 -0.036852 0.012950 0.018524 0.123942 -0.283322 -0.357545 0.177865 -0.077068 0.144484 -0.033680 0.045705 0.222931 -0.096942 -0.086803 0.117838 -0.269575 -0.133348 -0.193159 -0.090117 0.285459 0.203509 0.108902 -0.065202 0.049831 0.016379 -0.055628 -0.071070 0.205179 0.119189 -0.189342 0.345764 -0.054661 0.215612 -0.013934 0.017415 -0.017757 0.143142 0.064220 -0.229460 -0.064479 -0.122117 -0.428061 0.057093 -0.103737 0.228549 -0.281915 0.016159 -0.160145 0.035355 -0.011813 0.319969 -0.148239 0.006263 0.071067 -0.056754 0.023794 -0.179427 0.167433 0.007264 -0.147222 0.222042 0.041670 -0.017529 -0.054661 0.173341 -0.177553 -0.255129 -0.054730 0.137844 -0.005014 -0.333425 -0.144408 0.093679 0.036285 -0.126897 -0.242726 -0.139644 0.212651 0.052498 -0.163882 0.408980 -0.180885 0.104105 0.148784 0.215496 -0.012173 0.085479 -0.015495 -0.041103 0.304581 0.262819 -0.003513 
his 0.026307 -0.151894 0.261682 -0.072873 -0.048251 0.019676 0.032564 -0.138651 -0.024605 0.008397 0.010812 0.086416 -0.200253 -0.243691 0.127538 -0.047777 0.099964 -0.026297 0.037135 0.154197 -0.070308 -0.060419 0.088150 -0.193283 -0.091377 -0.130946 -0.057879 0.196164 0.141671 0.075231 -0.047155 0.030941 0.011403 -0.037341 -0.047806 0.139440 0.085006 -0.131825 0.241125 -0.035898 0.148721 -0.006915 0.013397 -0.009831 0.103990 0.042622 -0.165178 -0.041492 -0.085542 -0.291354 0.040993 -0.076597 0.157398 -0.199915 0.016764 -0.106669 0.029945 -0.011956 0.216862 -0.100917 -0.000414 0.046331 -0.041242 0.017532 -0.127542 0.119642 0.009890 -0.105501 0.151818 0.029885 -0.007901 -0.030864 0.124597 -0.115134 -0.178618 -0.037210 0.092407 -0.003562 -0.234101 -0.107308 0.063482 0.029712 -0.085724 -0.162148 -0.088817 0.149950 0.032763 -0.110918 0.282640 -0.122007 0.067953 0.103733 0.157831 -0.013391 0.061164 -0.007472 -0.034869 0.210040 0.190572 -0.007310 
then 0.019340 -0.095220 0.167534 -0.045055 -0.028106 0.007914 0.016095 -0.094709 -0.021198 0.007263 0.012474 0.056008 -0.120893 -0.160778 0.081515 -0.028022 0.063849 -0.013367 0.020119 0.103724 -0.046407 -0.033839 0.053961 -0.126397 -0.056309 -0.082837 -0.041604 0.132279 0.088921 0.050051 -0.029132 0.021719 0.005728 -0.022051 -0.026455 0.087446 0.055301 -0.084787 0.154028 -0.027072 0.098898 -0.001209 0.003009 -0.007998 0.066151 0.029233 -0.099943 -0.029564 -0.052085 -0.186222 0.030990 -0.046136 0.103501 -0.122045 0.008339 -0.072438 0.016379 -0.000639 0.144118 -0.063729 0.001380 0.034301 -0.022388 0.014338 -0.077060 0.077725 0.006195 -0.065789 0.104661 0.015815 -0.008330 -0.021345 0.081677 -0.076753 -0.113058 -0.019195 0.057301 -0.000940 -0.145893 -0.070250 0.043088 0.013915 -0.059935 -0.107427 -0.059338 0.095867 0.016978 -0.068548 0.180706 -0.082218 0.050010 0.068580 0.100138 -0.011026 0.037860 -0.003153 -0.021170 0.134051 0.116319 0.002880 
about 0.032927 -0.215597 0.356775 -0.095171 -0.063473 0.019552 0.033578 -0.194039 -0.031716 0.009396 0.015777 0.110533 -0.269195 -0.340454 0.176508 -0.070162 0.134540 -0.029581 0.042150 0.212707 -0.092027 -0.083677 0.114610 -0.258537 -0.130267 -0.176622 -0.086384 0.267460 0.189070 0.105231 -0.064474 0.053608 0.021107 -0.052370 -0.064455 0.188385 0.113155 -0.177473 0.322070 -0.053180 0.205508 -0.009284 0.014646 -0.019511 0.136394 0.063813 -0.224433 -0.055499 -0.124783 -0.399417 0.059373 -0.093621 0.214163 -0.263946 0.019313 -0.154477 0.033155 -0.012243 0.298679 -0.135984 0.007624 0.068648 -0.048164 0.024944 -0.166916 0.158458 0.012557 -0.138482 0.213086 0.040400 -0.016180 -0.048383 0.170503 -0.166909 -0.243109 -0.052370 0.131301 -0.005751 -0.309028 -0.138264 0.092602 0.035341 -0.126988 -0.226211 -0.127325 0.197592 0.046173 -0.158604 0.388243 -0.171954 0.100384 0.144422 0.212259 -0.009890 0.088243 -0.014686 -0.046260 0.288645 0.258241 -0.005446 
no 0.033268 -0.162465 0.276208 -0.078459 -0.048669 0.018212 0.034294 -0.153254 -0.025252 0.002786 0.014607 0.092036 -0.203779 -0.263395 0.137254 -0.055296 0.109157 -0.018846 0.037445 0.160674 -0.073144 -0.061805 0.090311 -0.202771 -0.094712 -0.135523 -0.066207 0.206370 0.151818 0.078766 -0.047247 0.036499 0.010675 -0.042871 -0.054949 0.151233 0.088293 -0.134889 0.256472 -0.040423 0.158964 -0.008159 0.011230 -0.018253 0.112353 0.044931 -0.173880 -0.047644 -0.089314 -0.318015 0.044100 -0.073728 0.170296 -0.207535 0.010714 -0.113161 0.028527 -0.008725 0.235566 -0.110488 0.000974 0.046677 -0.036533 0.016952 -0.133779 0.122271 0.002579 -0.103852 0.167309 0.032868 -0.006813 -0.041630 0.132769 -0.127191 -0.188519 -0.034021 0.094627 -0.010322 -0.249005 -0.105321 0.065813 0.025595 -0.089065 -0.175254 -0.099751 0.154582 0.032949 -0.118217 0.302205 -0.125146 0.077708 0.112999 0.166983 -0.007028 0.064923 -0.013554 -0.033252 0.225690 0.201233 -0.004304 
know 0.040253 -0.201775 0.347459 -0.086692 -0.058806 0.019857 0.041427 -0.182346 -0.038853 0.009764 0.019869 0.113343 -0.257788 -0.332157 0.172761 -0.064954 0.129117 -0.030745 0.047048 0.206737 -0.083018 -0.078287 0.115727 -0.255835 -0.120593 -0.176023 -0.081518 0.258624 0.191562 0.102187 -0.062846 0.044418 0.013570 -0.054701 -0.066406 0.181315 0.113623 -0.166664 0.318648 -0.052123 0.193670 -0.002150 0.017317 -0.016914 0.140125 0.060379 -0.212789 -0.062251 -0.114598 -0.389124 0.058583 -0.098776 0.204586 -0.260521 0.021647 -0.149976 0.031168 -0.010779 0.289882 -0.135725 0.002467 0.065359 -0.054046 0.017964 -0.167386 0.160780 0.003540 -0.132609 0.202256 0.036947 -0.010743 -0.042530 0.163966 -0.161210 -0.243041 -0.051850 0.123532 -0.010341 -0.304572 -0.133924 0.086411 0.033531 -0.113944 -0.215254 -0.124406 0.191310 0.044693 -0.150431 0.370092 -0.161095 0.098815 0.145191 0.207794 -0.010260 0.080980 -0.011785 -0.042167 0.277445 0.247653 -0.003442 
them 0.042917 -0.237765 0.407527 -0.104569 -0.069290 0.021743 0.041298 -0.218162 -0.037482 0.010340 0.019212 0.134480 -0.305538 -0.387181 0.193411 -0.075126 0.158181 -0.038575 0.051724 0.237356 -0.107980 -0.089040 0.133535 -0.296116 -0.144188 -0.205825 -0.099718 0.307643 0.225206 0.114550 -0.068219 0.058448 0.024660 -0.057653 -0.070470 0.213997 0.127395 -0.198738 0.370886 -0.055765 0.230619 -0.008638 0.019382 -0.024654 0.156942 0.067970 -0.247057 -0.071574 -0.134079 -0.461859 0.059149 -0.117836 0.251532 -0.309246 0.018282 -0.169614 0.035616 -0.009893 0.346083 -0.159933 0.003556 0.070442 -0.058931 0.021500 -0.198045 0.190739 0.012153 -0.156351 0.246669 0.044042 -0.018459 -0.058790 0.188892 -0.187141 -0.284324 -0.052955 0.145220 -0.009376 -0.362346 -0.156896 0.101301 0.048943 -0.140611 -0.260298 -0.140637 0.231444 0.052846 -0.179051 0.444009 -0.195404 0.117569 0.167837 0.244647 -0.011095 0.097898 -0.019786 -0.049973 0.334061 0.289987 -0.003604 
were 0.024281 -0.137881 0.237677 -0.062198 -0.040032 0.012207 0.027181 -0.126885 -0.026345 0.009877 0.011700 0.080322 -0.177002 -0.230496 0.111850 -0.043607 0.097541 -0.022928 0.026373 0.137487 -0.061038 -0.055318 0.078050 -0.178652 -0.085102 -0.121976 -0.058624 0.180102 0.125175 0.067310 -0.042624 0.036557 0.017841 -0.039395 -0.042361 0.129281 0.077231 -0.117641 0.222193 -0.039177 0.135342 -0.007352 0.014902 -0.017585 0.093261 0.037242 -0.149828 -0.039191 -0.085477 -0.274585 0.034140 -0.069305 0.143475 -0.183161 0.014785 -0.105403 0.018922 -0.006089 0.204452 -0.092383 0.004297 0.045103 -0.028982 0.012063 -0.114833 0.107400 0.006711 -0.090835 0.143955 0.021754 -0.014109 -0.030415 0.114359 -0.108694 -0.171752 -0.032334 0.091651 -0.000248 -0.215243 -0.090844 0.057029 0.022661 -0.077287 -0.151637 -0.088508 0.129563 0.031602 -0.105182 0.263578 -0.109371 0.067792 0.096153 0.139322 -0.005548 0.054046 -0.012641 -0.032477 0.192545 0.167519 -0.003547 
like 0.037194 -0.212163 0.349267 -0.092972 -0.061008 0.024187 0.039465 -0.191132 -0.034591 0.009696 0.021106 0.112871 -0.264870 -0.340008 0.169937 -0.069783 0.133259 -0.028221 0.048739 0.203903 -0.088819 -0.074141 0.108982 -0.260378 -0.129597 -0.173988 -0.081922 0.267497 0.186464 0.105933 -0.063607 0.046561 0.017852 -0.057214 -0.062463 0.192580 0.107566 -0.175329 0.329938 -0.048143 0.198922 -0.002295 0.017752 -0.022483 0.141724 0.061333 -0.221832 -0.060893 -0.124068 -0.397391 0.057762 -0.093540 0.213246 -0.264084 0.013966 -0.147857 0.036488 -0.009166 0.293712 -0.134751 0.007305 0.062426 -0.045773 0.020689 -0.170270 0.165780 0.011486 -0.139775 0.210151 0.035882 -0.013232 -0.049776 0.163911 -0.164038 -0.248697 -0.050856 0.124470 -0.012038 -0.312124 -0.138020 0.085211 0.033883 -0.122406 -0.228260 -0.128099 0.195553 0.048420 -0.155465 0.383808 -0.167900 0.102866 0.145576 0.211379 -0.010977 0.081108 -0.008313 -0.043888 0.288982 0.253935 -0.007557 
went 0.036645 -0.179295 0.302223 -0.085433 -0.060449 0.016837 0.030856 -0.164183 -0.030486 0.005782 0.017328 0.097964 -0.231581 -0.295136 0.146567 -0.058213 0.115924 -0.023678 0.042201 0.180546 -0.077800 -0.064379 0.097609 -0.223634 -0.106601 -0.151270 -0.069290 0.236277 0.167858 0.093062 -0.048641 0.041364 0.014686 -0.051359 -0.061358 0.161593 0.101000 -0.156953 0.278330 -0.044322 0.169468 -0.008892 0.011372 -0.019000 0.120164 0.056675 -0.186776 -0.052571 -0.107240 -0.345231 0.048346 -0.083729 0.185673 -0.235610 0.014121 -0.135419 0.031580 -0.007982 0.256085 -0.115162 0.007350 0.052323 -0.040045 0.021248 -0.143022 0.137600 0.005776 -0.118387 0.187982 0.035771 -0.015031 -0.041291 0.146080 -0.144818 -0.215578 -0.041324 0.113036 -0.005041 -0.267521 -0.120837 0.074888 0.037295 -0.100513 -0.196886 -0.109998 0.169014 0.044022 -0.130784 0.336076 -0.145461 0.082497 0.124069 0.177405 -0.013725 0.070373 -0.010347 -0.038597 0.246770 0.220063 -0.004798 
again 0.042023 -0.208447 0.343517 -0.089300 -0.065583 0.024506 0.032008 -0.191374 -0.040101 0.003705 0.020330 0.107119 -0.261920 -0.326520 0.170875 -0.070123 0.134715 -0.032925 0.049035 0.207708 -0.083513 -0.081916 0.113678 -0.259114 -0.121969 -0.179779 -0.086730 0.267223 0.184058 0.105029 -0.063542 0.047495 0.015076 -0.052351 -0.063651 0.186179 0.114092 -0.175946 0.317958 -0.054076 0.196456 -0.009520 0.020613 -0.015264 0.137529 0.059140 -0.219289 -0.059556 -0.116862 -0.391896 0.055770 -0.099580 0.206757 -0.263020 0.020190 -0.151149 0.037645 -0.009242 0.294973 -0.138340 0.006100 0.063144 -0.050939 0.023899 -0.169051 0.160468 0.007228 -0.135700 0.208876 0.037504 -0.018747 -0.048847 0.167975 -0.159991 -0.239140 -0.043902 0.128769 -0.002439 -0.312088 -0.132363 0.090163 0.035762 -0.114060 -0.218105 -0.124626 0.194488 0.044034 -0.151042 0.375076 -0.167029 0.099658 0.146246 0.205979 -0.008927 0.079164 -0.011908 -0.043949 0.285296 0.252775 -0.001186 
would 0.021150 -0.119628 0.203634 -0.050888 -0.038503 0.010140 0.017525 -0.112952 -0.024269 0.003555 0.011831 0.069264 -0.156469 -0.192304 0.100871 -0.037207 0.082179 -0.016305 0.026094 0.118133 -0.048166 -0.046250 0.066564 -0.145161 -0.071917 -0.107311 -0.049995 0.156503 0.113157 0.057532 -0.040386 0.027584 0.009483 -0.031482 -0.038092 0.111099 0.068083 -0.097130 0.184112 -0.025575 0.115443 -0.006030 0.011276 -0.006934 0.079682 0.036961 -0.121123 -0.029056 -0.071870 -0.234003 0.028870 -0.059805 0.123174 -0.152611 0.013323 -0.089244 0.018043 -0.010639 0.169582 -0.074300 -0.001407 0.040761 -0.027054 0.010815 -0.099771 0.090249 0.008402 -0.077009 0.122529 0.020902 -0.007081 -0.022751 0.100833 -0.096071 -0.143724 -0.028191 0.076792 -0.001656 -0.176801 -0.080632 0.052952 0.026484 -0.069169 -0.129419 -0.076133 0.113768 0.027684 -0.084810 0.219451 -0.092329 0.059102 0.084656 0.119938 -0.009973 0.052391 -0.007198 -0.027747 0.169011 0.140475 -0.004580 
herself 0.044266 -0.257094 0.440039 -0.119324 -0.079885 0.022762 0.046977 -0.239935 -0.047137 0.011768 0.022714 0.141893 -0.332727 -0.416989 0.212073 -0.087627 0.173160 -0.039359 0.060327 0.263327 -0.111809 -0.096435 0.142544 -0.321092 -0.159759 -0.221734 -0.105375 0.330602 0.235010 0.122983 -0.074669 0.055899 0.028419 -0.063312 -0.082296 0.238071 0.134386 -0.218009 0.401911 -0.064400 0.250826 -0.012747 0.019062 -0.021502 0.174309 0.076219 -0.267907 -0.077983 -0.147974 -0.496736 0.071852 -0.124105 0.266158 -0.325047 0.019485 -0.183192 0.042160 -0.015210 0.372839 -0.175523 0.003877 0.076224 -0.058880 0.022408 -0.207459 0.203696 0.009252 -0.168398 0.263375 0.051221 -0.017591 -0.055661 0.206049 -0.200224 -0.300546 -0.063163 0.156936 -0.006242 -0.385822 -0.175269 0.108956 0.041905 -0.150248 -0.275608 -0.154332 0.243003 0.056865 -0.192236 0.472096 -0.209736 0.124097 0.176732 0.259503 -0.019107 0.105622 -0.015529 -0.053408 0.358611 0.311075 -0.010276 
do 0.039327 -0.228841 0.379502 -0.100441 -0.073930 0.026189 0.036615 -0.209971 -0.043050 0.010301 0.019149 0.126633 -0.286175 -0.362251 0.182904 -0.070831 0.150357 -0.033071 0.043668 0.221271 -0.092571 -0.080727 0.118773 -0.276283 -0.129984 -0.186440 -0.087431 0.287074 0.204937 0.106536 -0.064417 0.053534 0.017048 -0.062071 -0.064463 0.203132 0.121548 -0.186483 0.352760 -0.058210 0.218747 -0.010435 0.016613 -0.017649 0.146574 0.061428 -0.239258 -0.059816 -0.132078 -0.433304 0.057129 -0.104380 0.230103 -0.287780 0.015994 -0.161279 0.032125 -0.012105 0.322118 -0.148418 0.004171 0.068436 -0.053642 0.022541 -0.177370 0.176606 0.003000 -0.143737 0.225525 0.041360 -0.019372 -0.049977 0.180887 -0.169829 -0.268501 -0.047833 0.135137 -0.002973 -0.338804 -0.149499 0.094320 0.043726 -0.132744 -0.235985 -0.135705 0.212091 0.052054 -0.163973 0.410643 -0.174517 0.102211 0.157000 0.224643 -0.012176 0.095330 -0.012023 -0.044303 0.309013 0.271190 -0.003581 
have 0.020765 -0.127630 0.205323 -0.056954 -0.036998 0.009057 0.020086 -0.114528 -0.021900 0.006356 0.015937 0.066589 -0.153862 -0.200608 0.102381 -0.037496 0.078892 -0.017023 0.030452 0.119414 -0.049118 -0.049920 0.064762 -0.156043 -0.071732 -0.103950 -0.055976 0.157753 0.116740 0.064823 -0.034453 0.030009 0.008444 -0.030904 -0.039486 0.113037 0.066965 -0.107828 0.190052 -0.032947 0.120453 0.000456 0.006719 -0.011767 0.081347 0.038123 -0.131310 -0.030825 -0.074894 -0.240689 0.033766 -0.055864 0.127242 -0.161722 0.013779 -0.091812 0.024439 -0.007174 0.177738 -0.086495 0.004863 0.033628 -0.030158 0.016642 -0.104834 0.100197 0.002885 -0.078489 0.126714 0.018851 -0.009144 -0.029582 0.102153 -0.099035 -0.150944 -0.024588 0.080586 -0.000435 -0.182766 -0.084544 0.049218 0.017703 -0.067951 -0.130443 -0.070006 0.112995 0.032033 -0.091344 0.224838 -0.103283 0.060709 0.083093 0.127453 -0.011359 0.052772 -0.007825 -0.029764 0.176988 0.154200 -0.001252 
when 0.044515 -0.230900 0.394394 -0.102428 -0.076327 0.022104 0.041190 -0.212648 -0.040506 0.013126 0.024531 0.124863 -0.300671 -0.376109 0.195247 -0.080707 0.154160 -0.031879 0.050957 0.233118 -0.100990 -0.087456 0.126730 -0.289929 -0.136013 -0.195524 -0.094561 0.300531 0.212787 0.118155 -0.074591 0.055863 0.025137 -0.062371 -0.069563 0.213258 0.124262 -0.202231 0.365613 -0.053936 0.221441 -0.008622 0.019756 -0.024728 0.153996 0.070414 -0.251342 -0.063509 -0.136434 -0.456001 0.066118 -0.115148 0.244064 -0.296384 0.022052 -0.171188 0.035702 -0.012133 0.338976 -0.151978 0.002878 0.073926 -0.054264 0.027756 -0.184421 0.184840 0.012072 -0.153953 0.242033 0.044259 -0.020918 -0.056065 0.191679 -0.185687 -0.273694 -0.053449 0.143652 -0.002372 -0.347714 -0.153062 0.106195 0.041236 -0.132358 -0.253248 -0.144808 0.226247 0.052615 -0.173340 0.430152 -0.190879 0.114514 0.160078 0.234725 -0.018664 0.097687 -0.014390 -0.051754 0.328969 0.284477 -0.010653 
could 0.026068 -0.161585 0.264041 -0.067028 -0.046786 0.017372 0.027578 -0.148398 -0.025933 0.010645 0.012603 0.083578 -0.197877 -0.255075 0.127364 -0.049287 0.106607 -0.020818 0.037050 0.163562 -0.066988 -0.061011 0.085852 -0.202624 -0.092066 -0.138078 -0.063295 0.205199 0.146772 0.081907 -0.045586 0.039808 0.018674 -0.041007 -0.046515 0.138592 0.084922 -0.131621 0.250554 -0.040351 0.156970 -0.005526 0.013510 -0.011360 0.107159 0.043341 -0.170511 -0.043681 -0.092443 -0.307118 0.045461 -0.075333 0.159305 -0.203456 0.014351 -0.119246 0.022652 -0.008978 0.222109 -0.100048 0.008892 0.052561 -0.038948 0.017932 -0.128789 0.125042 0.000921 -0.107641 0.160077 0.030435 -0.009867 -0.034295 0.125745 -0.126287 -0.190250 -0.034520 0.098472 -0.008443 -0.236916 -0.103392 0.073382 0.033209 -0.092304 -0.170899 -0.097007 0.149190 0.032851 -0.114445 0.291733 -0.125773 0.078601 0.110396 0.158052 -0.010730 0.065470 -0.005691 -0.037472 0.219362 0.197042 -0.008737 
or 0.027797 -0.166399 0.275506 -0.076210 -0.049224 0.019095 0.028578 -0.146720 -0.028027 0.007213 0.016471 0.086680 -0.209535 -0.267917 0.135801 -0.050957 0.103573 -0.026051 0.035390 0.165103 -0.066582 -0.065079 0.088845 -0.206948 -0.094220 -0.137708 -0.068453 0.215558 0.154124 0.079166 -0.051069 0.044195 0.016283 -0.045790 -0.055829 0.146785 0.085151 -0.136565 0.253770 -0.040257 0.160432 -0.002342 0.010592 -0.019688 0.109012 0.046614 -0.177424 -0.047430 -0.094421 -0.315658 0.040626 -0.076185 0.169085 -0.207330 0.012832 -0.119064 0.027666 -0.014899 0.239525 -0.107557 0.003133 0.053230 -0.043634 0.014235 -0.134227 0.129335 0.007049 -0.110877 0.168596 0.033962 -0.013431 -0.039196 0.134965 -0.131442 -0.194528 -0.041669 0.097732 -0.007319 -0.249445 -0.111863 0.066991 0.025397 -0.095945 -0.183138 -0.104247 0.153431 0.032210 -0.126243 0.300636 -0.135892 0.081273 0.117329 0.163682 -0.015714 0.067775 -0.006642 -0.033297 0.232069 0.201942 -0.006707 
there 0.041614 -0.235183 0.394538 -0.104894 -0.068263 0.020758 0.038343 -0.214590 -0.044995 0.005208 0.016726 0.129803 -0.293641 -0.379645 0.192032 -0.073634 0.155758 -0.033710 0.046968 0.238448 -0.096509 -0.081829 0.127581 -0.292543 -0.142056 -0.201570 -0.094494 0.305621 0.218601 0.120153 -0.069354 0.059494 0.017894 -0.064626 -0.070635 0.208084 0.121770 -0.193488 0.366231 -0.060134 0.221460 -0.007368 0.017938 -0.023433 0.158026 0.064749 -0.242100 -0.064403 -0.135642 -0.450899 0.065126 -0.114474 0.241221 -0.298026 0.020306 -0.171447 0.036097 -0.016202 0.331932 -0.158083 -0.000065 0.076329 -0.054303 0.019571 -0.187240 0.181389 0.010379 -0.151682 0.236950 0.042348 -0.017541 -0.056055 0.182825 -0.186170 -0.278826 -0.058592 0.144037 -0.013267 -0.348129 -0.159304 0.096251 0.040036 -0.138492 -0.251651 -0.141384 0.218482 0.048725 -0.173854 0.429483 -0.192512 0.108889 0.163570 0.234326 -0.013992 0.094478 -0.013008 -0.049580 0.327134 0.281218 -0.000451 
thought 0.041615 -0.211724 0.366245 -0.094951 -0.070341 0.021045 0.040936 -0.198069 -0.037672 0.010422 0.019887 0.120102 -0.267518 -0.339548 0.171216 -0.072322 0.139650 -0.030137 0.046428 0.218218 -0.093487 -0.079575 0.112484 -0.266854 -0.122965 -0.186789 -0.084007 0.277525 0.195129 0.108849 -0.064391 0.049093 0.017790 -0.059893 -0.062620 0.192184 0.111339 -0.183294 0.336713 -0.048213 0.203739 -0.012379 0.018068 -0.016619 0.146184 0.060510 -0.225101 -0.062631 -0.124632 -0.410792 0.054423 -0.097593 0.220031 -0.277793 0.017704 -0.153209 0.034063 -0.012648 0.307801 -0.138922 0.002694 0.066774 -0.055730 0.017638 -0.171184 0.161639 0.007024 -0.144630 0.215297 0.034508 -0.017060 -0.047561 0.169921 -0.167984 -0.254194 -0.054147 0.133647 -0.005864 -0.321751 -0.140852 0.089235 0.038055 -0.122912 -0.226707 -0.125969 0.200400 0.045965 -0.162762 0.397436 -0.171405 0.098889 0.144577 0.212428 -0.014383 0.084908 -0.016870 -0.047758 0.300877 0.259628 -0.003927 
off 0.028236 -0.147730 0.250762 -0.064042 -0.046799 0.013627 0.027492 -0.134430 -0.022728 0.009131 0.016996 0.080769 -0.189307 -0.241148 0.122593 -0.051158 0.092813 -0.023851 0.034573 0.152703 -0.063380 -0.056248 0.080107 -0.181654 -0.090240 -0.123904 -0.064474 0.191607 0.140378 0.072686 -0.046306 0.031112 0.018581 -0.043177 -0.049603 0.131610 0.079750 -0.128928 0.231742 -0.035151 0.146912 -0.005022 0.006589 -0.013974 0.099844 0.045746 -0.151385 -0.046606 -0.086300 -0.290371 0.041676 -0.066083 0.149540 -0.192547 0.017660 -0.103350 0.023801 -0.012048 0.212874 -0.099320 0.003246 0.042338 -0.035423 0.009916 -0.121870 0.113831 0.004418 -0.093918 0.152534 0.029979 -0.006905 -0.030744 0.113998 -0.117356 -0.173434 -0.031595 0.093858 -0.007887 -0.227605 -0.104001 0.066488 0.029883 -0.088001 -0.161473 -0.085777 0.143800 0.029607 -0.110884 0.274140 -0.120611 0.069109 0.100671 0.146077 -0.011419 0.057584 -0.012360 -0.028289 0.204632 0.177801 -0.008003 
time 0.036527 -0.181023 0.305732 -0.080786 -0.057599 0.024242 0.036295 -0.164370 -0.034069 0.006734 0.017965 0.096748 -0.229727 -0.288828 0.145863 -0.063100 0.120307 -0.027380 0.042851 0.173614 -0.072988 -0.070318 0.100773 -0.221268 -0.109911 -0.153021 -0.070723 0.234605 0.160785 0.085844 -0.051129 0.041121 0.014930 -0.045768 -0.056700 0.159457 0.094974 -0.152715 0.280808 -0.043875 0.170111 -0.008035 0.016792 -0.020155 0.121923 0.051518 -0.191380 -0.055468 -0.101358 -0.344179 0.045359 -0.088177 0.179995 -0.222848 0.010241 -0.132312 0.033425 -0.011836 0.256032 -0.115727 0.006828 0.058650 -0.041534 0.014322 -0.142820 0.140107 0.005366 -0.118892 0.183410 0.030904 -0.017625 -0.038809 0.145695 -0.140889 -0.209978 -0.045185 0.106975 -0.004869 -0.269558 -0.119936 0.074984 0.030332 -0.107835 -0.193394 -0.106342 0.169184 0.040937 -0.135833 0.331059 -0.147834 0.081149 0.126229 0.177662 -0.011120 0.068836 -0.015185 -0.041835 0.248393 0.211453 0.000460 
how 0.028004 -0.174874 0.295645 -0.079392 -0.056167 0.022137 0.033657 -0.158271 -0.034350 0.007384 0.011259 0.089877 -0.218526 -0.279513 0.141567 -0.061489 0.117788 -0.020197 0.040534 0.170430 -0.070211 -0.064036 0.091245 -0.216006 -0.106314 -0.143589 -0.073325 0.222256 0.158657 0.082895 -0.052246 0.042683 0.018614 -0.048613 -0.054644 0.152699 0.094559 -0.147536 0.269969 -0.045678 0.167564 -0.009505 0.013932 -0.019352 0.115203 0.052773 -0.180675 -0.044630 -0.099636 -0.336575 0.046869 -0.077115 0.181522 -0.216375 0.018776 -0.128795 0.031733 -0.005808 0.249270 -0.117070 -0.000516 0.056086 -0.045285 0.020819 -0.142889 0.134723 0.005224 -0.115465 0.172408 0.030802 -0.016790 -0.043354 0.138040 -0.129763 -0.203506 -0.041365 0.106774 -0.007090 -0.262794 -0.117141 0.077254 0.035978 -0.095692 -0.182861 -0.108353 0.158259 0.033893 -0.130631 0.317971 -0.133413 0.076916 0.114368 0.174780 -0.013426 0.069196 -0.013690 -0.034074 0.234270 0.203622 0.000738 
me 0.034149 -0.215614 0.358734 -0.098972 -0.067800 0.019428 0.041955 -0.192223 -0.034705 0.009829 0.014980 0.121011 -0.272513 -0.342218 0.179964 -0.067230 0.137506 -0.025647 0.049401 0.216462 -0.093083 -0.079465 0.119875 -0.269776 -0.128205 -0.185033 -0.090178 0.282195 0.195843 0.102299 -0.066329 0.052189 0.022589 -0.056696 -0.066256 0.197990 0.112522 -0.183013 0.340610 -0.047962 0.201448 -0.007529 0.019913 -0.017301 0.140738 0.060303 -0.228682 -0.063444 -0.123822 -0.411475 0.054471 -0.103863 0.220905 -0.278093 0.014826 -0.151759 0.032898 -0.013520 0.308927 -0.145458 -0.001148 0.064654 -0.046727 0.025389 -0.173957 0.162384 0.009025 -0.140840 0.214234 0.036922 -0.014831 -0.053143 0.169990 -0.166260 -0.257112 -0.045350 0.136547 -0.002888 -0.325362 -0.147012 0.093585 0.037975 -0.128193 -0.233504 -0.131308 0.203884 0.043229 -0.156129 0.390232 -0.174300 0.104275 0.148337 0.217997 -0.017832 0.082522 -0.016262 -0.046710 0.297603 0.259098 -0.000632 
queen 0.011440 -0.081708 0.131771 -0.033151 -0.022173 0.005678 0.017445 -0.070827 -0.010668 -0.000766 0.009760 0.039933 -0.101294 -0.120901 0.063514 -0.024399 0.050912 -0.007510 0.016212 0.080691 -0.027904 -0.025952 0.040448 -0.099852 -0.043846 -0.063125 -0.035998 0.095314 0.067661 0.042076 -0.022043 0.016915 0.005629 -0.018147 -0.024592 0.069906 0.036879 -0.062688 0.117265 -0.021286 0.074922 -0.006859 0.009998 -0.004614 0.052006 0.027007 -0.080280 -0.024191 -0.042034 -0.145528 0.020775 -0.036602 0.082961 -0.101124 0.006467 -0.059912 0.013268 -0.007308 0.108650 -0.053695 -0.001599 0.018779 -0.019632 0.004755 -0.062488 0.055183 0.005166 -0.049110 0.078279 0.009528 -0.008641 -0.018216 0.061926 -0.054680 -0.089547 -0.018097 0.042393 0.002732 -0.119262 -0.053864 0.035915 0.015018 -0.048467 -0.084627 -0.042399 0.071715 0.014634 -0.058238 0.141480 -0.061739 0.035055 0.054254 0.073604 -0.000338 0.033044 -0.006386 -0.013881 0.104024 0.093516 -0.005083 
into 0.028369 -0.181884 0.304224 -0.076640 -0.054735 0.020704 0.034479 -0.163874 -0.030303 0.010304 0.012566 0.097546 -0.230918 -0.290153 0.144737 -0.061521 0.121084 -0.026202 0.038468 0.184907 -0.077330 -0.067141 0.100999 -0.223762 -0.108632 -0.149734 -0.072102 0.234332 0.167889 0.085185 -0.057336 0.045960 0.019130 -0.050118 -0.053522 0.163255 0.095643 -0.153740 0.281047 -0.039352 0.167986 -0.007410 0.019338 -0.020201 0.117879 0.051712 -0.183429 -0.049182 -0.105399 -0.346368 0.045690 -0.079863 0.185218 -0.229779 0.009785 -0.130202 0.028250 -0.013610 0.251040 -0.116014 0.001354 0.051741 -0.047087 0.013269 -0.145665 0.142531 0.004467 -0.116556 0.183215 0.031607 -0.017407 -0.039533 0.147399 -0.134028 -0.213085 -0.046298 0.111697 -0.000451 -0.271439 -0.118507 0.073182 0.036351 -0.101118 -0.195523 -0.105973 0.165708 0.041390 -0.130236 0.329586 -0.140528 0.081229 0.125424 0.180174 -0.007946 0.072582 -0.012292 -0.042631 0.246917 0.217971 -0.008172 
see 0.048112 -0.246133 0.421727 -0.110031 -0.074852 0.024035 0.038877 -0.228692 -0.046116 0.015074 0.017346 0.136190 -0.311796 -0.396665 0.205161 -0.079813 0.166114 -0.033480 0.056880 0.245730 -0.101592 -0.089251 0.136311 -0.301056 -0.150709 -0.211406 -0.099358 0.314305 0.228888 0.124481 -0.074793 0.060114 0.019237 -0.064168 -0.077621 0.226981 0.130987 -0.210072 0.383060 -0.057230 0.238575 -0.005902 0.019035 -0.026918 0.167340 0.073586 -0.260621 -0.070858 -0.144054 -0.469704 0.066626 -0.117763 0.250743 -0.311845 0.024707 -0.176120 0.042376 -0.013751 0.349395 -0.164286 0.006152 0.071620 -0.058211 0.027764 -0.200916 0.187804 0.008475 -0.163496 0.247325 0.042021 -0.019459 -0.055112 0.194712 -0.190183 -0.291646 -0.055023 0.148946 -0.003955 -0.372118 -0.162986 0.105076 0.040771 -0.147002 -0.264536 -0.147613 0.234918 0.056172 -0.179957 0.451037 -0.195168 0.116601 0.171345 0.246458 -0.019388 0.098727 -0.020170 -0.050258 0.343167 0.294822 -0.005991 
well 0.034113 -0.199965 0.348375 -0.088384 -0.058943 0.017485 0.040926 -0.184515 -0.032648 0.011442 0.023488 0.107273 -0.253797 -0.330789 0.171534 -0.071248 0.129822 -0.030901 0.049294 0.207030 -0.082989 -0.075633 0.108517 -0.254741 -0.120387 -0.168219 -0.079035 0.265983 0.181565 0.096665 -0.060965 0.049020 0.016289 -0.053046 -0.059154 0.181035 0.108315 -0.172180 0.321768 -0.053625 0.190976 -0.007861 0.012057 -0.014899 0.133896 0.061415 -0.214694 -0.062943 -0.114885 -0.390180 0.057329 -0.094099 0.210834 -0.261530 0.019702 -0.148925 0.033162 -0.010438 0.293097 -0.130919 0.004984 0.059037 -0.052098 0.017427 -0.167369 0.160775 0.006984 -0.140375 0.202328 0.036451 -0.013287 -0.044431 0.164752 -0.161862 -0.234720 -0.052425 0.127308 -0.007159 -0.305595 -0.138217 0.081575 0.039763 -0.120657 -0.217997 -0.123293 0.196045 0.046573 -0.150657 0.374405 -0.157469 0.095397 0.144918 0.199976 -0.015133 0.082189 -0.017787 -0.044277 0.286451 0.247671 -0.008593 
did 0.036676 -0.227334 0.385557 -0.100410 -0.070881 0.023431 0.038565 -0.207136 -0.039234 0.013367 0.016310 0.125396 -0.283185 -0.357682 0.182457 -0.071520 0.145927 -0.034886 0.045592 0.221615 -0.093562 -0.087544 0.122462 -0.279276 -0.132053 -0.196107 -0.094610 0.289423 0.206588 0.115228 -0.066100 0.052532 0.025896 -0.061342 -0.069518 0.208028 0.116543 -0.189206 0.349085 -0.057740 0.211766 -0.012703 0.014635 -0.020007 0.150410 0.068008 -0.233890 -0.066606 -0.132197 -0.436108 0.056611 -0.100396 0.227565 -0.289825 0.016412 -0.162970 0.034979 -0.010767 0.323227 -0.145356 0.007267 0.070150 -0.050869 0.019897 -0.178572 0.177289 0.011256 -0.150661 0.231172 0.041461 -0.014675 -0.053482 0.184090 -0.178741 -0.261630 -0.050655 0.135491 -0.007566 -0.335539 -0.153799 0.091102 0.038373 -0.127119 -0.245033 -0.136782 0.211008 0.049694 -0.164798 0.410347 -0.183881 0.107935 0.156853 0.220804 -0.016276 0.093632 -0.016905 -0.043683 0.307848 0.275574 -0.006530 
your 0.037089 -0.197916 0.333561 -0.087103 -0.059520 0.025016 0.032630 -0.182573 -0.037353 0.013852 0.018117 0.106533 -0.251892 -0.318535 0.166312 -0.060692 0.130538 -0.023284 0.039966 0.192707 -0.078958 -0.074649 0.103903 -0.241353 -0.117276 -0.165788 -0.083753 0.253139 0.184150 0.094135 -0.059863 0.045684 0.018087 -0.046129 -0.063711 0.175565 0.103963 -0.164919 0.300999 -0.043195 0.183157 -0.008188 0.017165 -0.013716 0.127844 0.058568 -0.202546 -0.054107 -0.116873 -0.378782 0.053124 -0.086757 0.204928 -0.250929 0.015477 -0.145036 0.035540 -0.006823 0.275575 -0.131909 -0.000921 0.057734 -0.049248 0.014257 -0.159004 0.150286 0.005567 -0.132734 0.195203 0.040855 -0.014525 -0.049293 0.151496 -0.152214 -0.231194 -0.043609 0.118998 -0.011031 -0.288837 -0.128621 0.083814 0.037410 -0.111618 -0.214481 -0.115409 0.183297 0.039801 -0.141099 0.357865 -0.152444 0.094368 0.133289 0.193643 -0.015718 0.082523 -0.008811 -0.041440 0.271866 0.232941 -0.003449 
king 0.027108 -0.167541 0.276477 -0.074628 -0.055146 0.016681 0.033234 -0.147205 -0.026985 0.005850 0.018509 0.087368 -0.212149 -0.260263 0.130495 -0.053125 0.109632 -0.018287 0.033948 0.167827 -0.066058 -0.059007 0.092273 -0.203391 -0.097407 -0.137881 -0.062163 0.216548 0.150550 0.082068 -0.049555 0.034456 0.012471 -0.044297 -0.047007 0.145224 0.083890 -0.142612 0.258911 -0.042293 0.161736 -0.007084 0.010197 -0.019442 0.111483 0.050495 -0.175593 -0.048337 -0.091801 -0.317370 0.039845 -0.078973 0.169233 -0.210283 0.014189 -0.121813 0.030112 -0.012019 0.236187 -0.109096 0.004700 0.049982 -0.042240 0.012233 -0.134753 0.123981 0.000635 -0.111896 0.162646 0.031755 -0.014100 -0.031909 0.129109 -0.130051 -0.195870 -0.041796 0.099211 -0.004262 -0.243838 -0.110701 0.072848 0.032015 -0.093974 -0.171713 -0.101630 0.158862 0.039725 -0.116262 0.298185 -0.131959 0.081799 0.110319 0.168202 -0.013392 0.066882 -0.012137 -0.035189 0.231131 0.200064 -0.003474 
who 0.036510 -0.209152 0.341971 -0.096272 -0.060766 0.025411 0.039410 -0.186161 -0.039664 0.005789 0.022387 0.115078 -0.262685 -0.323826 0.167413 -0.062241 0.137784 -0.031990 0.044778 0.201539 -0.085691 -0.076227 0.112777 -0.255331 -0.125631 -0.172278 -0.082162 0.266263 0.188073 0.099524 -0.055826 0.043819 0.020994 -0.055689 -0.059719 0.183660 0.105664 -0.173483 0.321731 -0.051547 0.198963 -0.006377 0.017308 -0.018234 0.132811 0.061098 -0.208393 -0.060825 -0.114690 -0.395230 0.048733 -0.092389 0.205872 -0.261210 0.013905 -0.145198 0.032084 -0.007329 0.286376 -0.131753 0.008302 0.065697 -0.047208 0.016541 -0.169303 0.154633 0.002505 -0.138550 0.207490 0.038478 -0.013387 -0.047924 0.166058 -0.155047 -0.235723 -0.046788 0.125489 -0.006039 -0.309972 -0.132859 0.086857 0.032845 -0.112620 -0.218102 -0.120863 0.188680 0.041873 -0.151630 0.376912 -0.167462 0.092473 0.144786 0.199835 -0.008067 0.077100 -0.014084 -0.043327 0.275543 0.248556 -0.008778 
don't 0.021569 -0.128985 0.224476 -0.057338 -0.038635 0.016477 0.026795 -0.116405 -0.018483 0.001457 0.013553 0.074463 -0.165554 -0.206828 0.107563 -0.040291 0.083832 -0.017593 0.029783 0.129108 -0.058296 -0.044621 0.074434 -0.163321 -0.077013 -0.107919 -0.049042 0.173445 0.124008 0.065484 -0.042992 0.029730 0.016094 -0.032841 -0.039357 0.116853 0.071490 -0.109711 0.201616 -0.031823 0.123884 -0.005618 0.013640 -0.016618 0.087132 0.036299 -0.136457 -0.040006 -0.080378 -0.248083 0.036985 -0.059952 0.136972 -0.165182 0.006642 -0.097345 0.016863 -0.005685 0.185307 -0.082623 0.001777 0.035723 -0.027331 0.008430 -0.104949 0.099613 0.009403 -0.088519 0.133582 0.020978 -0.012057 -0.030447 0.107530 -0.100144 -0.153403 -0.030045 0.080727 -0.002332 -0.199638 -0.082693 0.058146 0.018566 -0.076299 -0.142934 -0.080353 0.120817 0.032380 -0.098729 0.240617 -0.107491 0.060952 0.086868 0.126011 -0.009971 0.051130 -0.002892 -0.028533 0.184837 0.162232 -0.001820 
now 0.042889 -0.220054 0.378412 -0.097645 -0.069723 0.024894 0.043681 -0.204046 -0.036673 0.011993 0.019165 0.117579 -0.280892 -0.351692 0.182718 -0.074475 0.150085 -0.030717 0.044227 0.223223 -0.097476 -0.081032 0.115965 -0.273828 -0.130151 -0.190445 -0.091946 0.282920 0.199983 0.106320 -0.066381 0.048268 0.024509 -0.053772 -0.064271 0.198673 0.123614 -0.188068 0.348643 -0.053871 0.217163 -0.004370 0.012979 -0.019740 0.146610 0.065916 -0.233504 -0.063241 -0.126116 -0.424932 0.053617 -0.103793 0.229605 -0.279643 0.015587 -0.159490 0.034782 -0.015775 0.319577 -0.142596 0.000014 0.066673 -0.054150 0.017769 -0.183415 0.176283 0.008741 -0.149930 0.225167 0.045542 -0.018432 -0.054747 0.173731 -0.170314 -0.262412 -0.054615 0.134404 -0.009609 -0.331249 -0.152159 0.092345 0.041914 -0.126824 -0.238187 -0.133281 0.213083 0.053209 -0.162695 0.403446 -0.172650 0.108155 0.156033 0.217471 -0.014900 0.084701 -0.015371 -0.047383 0.310443 0.270473 -0.005917 
i'm 0.042055 -0.235468 0.394011 -0.101542 -0.072769 0.021737 0.040142 -0.217720 -0.042287 0.011267 0.021559 0.132633 -0.300378 -0.377012 0.193404 -0.072968 0.151263 -0.031594 0.047065 0.230478 -0.095957 -0.088185 0.128884 -0.287960 -0.143800 -0.202886 -0.098476 0.305893 0.216829 0.115824 -0.067158 0.058574 0.018858 -0.059092 -0.070120 0.207947 0.127341 -0.196989 0.368421 -0.056192 0.224148 -0.005065 0.014519 -0.025644 0.151615 0.063668 -0.249184 -0.067463 -0.139415 -0.453026 0.057107 -0.107127 0.244385 -0.297814 0.023790 -0.170242 0.035051 -0.010892 0.338371 -0.151953 0.000516 0.068030 -0.060789 0.025442 -0.194521 0.183263 0.012338 -0.155928 0.234422 0.046135 -0.013811 -0.056467 0.188308 -0.177542 -0.281453 -0.053958 0.139513 -0.007471 -0.354485 -0.156499 0.104689 0.044025 -0.135566 -0.248111 -0.138490 0.226401 0.052885 -0.176207 0.429748 -0.190916 0.107043 0.166058 0.235871 -0.015594 0.099223 -0.011753 -0.045379 0.324933 0.284886 -0.007905 
my 0.040552 -0.209880 0.358857 -0.099076 -0.062796 0.024298 0.039465 -0.195842 -0.041397 0.012029 0.024769 0.119914 -0.266160 -0.346707 0.174363 -0.071409 0.143018 -0.027215 0.050522 0.211228 -0.089999 -0.081112 0.111343 -0.265313 -0.130323 -0.181059 -0.087941 0.272299 0.199289 0.101669 -0.059323 0.046943 0.016696 -0.053395 -0.066371 0.193066 0.118663 -0.181701 0.334791 -0.050892 0.200345 -0.004440 0.014184 -0.020545 0.145491 0.057667 -0.218230 -0.065774 -0.118507 -0.410356 0.060270 -0.097522 0.222690 -0.272851 0.018402 -0.156639 0.037078 -0.011926 0.303441 -0.145047 0.008329 0.067680 -0.049557 0.021988 -0.168414 0.162881 0.003995 -0.145762 0.213122 0.041123 -0.016061 -0.053261 0.167654 -0.163688 -0.254915 -0.051282 0.125143 -0.011872 -0.324602 -0.147448 0.085576 0.034023 -0.123813 -0.229115 -0.131196 0.199202 0.047521 -0.159702 0.390053 -0.173134 0.096081 0.144172 0.208385 -0.017635 0.081213 -0.015843 -0.044391 0.297142 0.256991 -0.000122 
began 0.024140 -0.119352 0.212108 -0.053299 -0.038733 0.011452 0.022188 -0.113242 -0.024936 0.008204 0.013489 0.066518 -0.159862 -0.199815 0.101414 -0.040213 0.082655 -0.013119 0.021904 0.125895 -0.056234 -0.043428 0.065632 -0.153575 -0.076741 -0.109654 -0.045845 0.158097 0.111733 0.056384 -0.038884 0.026037 0.006923 -0.036599 -0.037976 0.115958 0.068094 -0.101993 0.193174 -0.034210 0.117193 -0.006903 0.013785 -0.016158 0.083117 0.037142 -0.134876 -0.030954 -0.075403 -0.240812 0.029714 -0.059560 0.132508 -0.160971 0.005698 -0.092089 0.019555 -0.011491 0.176837 -0.080985 -0.002166 0.034477 -0.028201 0.014479 -0.099777 0.100315 0.008771 -0.084819 0.120736 0.018192 -0.003848 -0.023425 0.100253 -0.095061 -0.144344 -0.024197 0.079725 -0.002955 -0.189820 -0.082401 0.053951 0.024048 -0.067721 -0.134187 -0.071585 0.116597 0.025838 -0.094174 0.230235 -0.096004 0.058508 0.083114 0.128446 -0.011822 0.051087 -0.007569 -0.029500 0.172993 0.153864 0.001736 
by 0.026464 -0.159495 0.259462 -0.073912 -0.044340 0.019381 0.023478 -0.145468 -0.028389 0.005740 0.018266 0.085241 -0.200676 -0.247588 0.123762 -0.048853 0.104868 -0.021907 0.031093 0.155967 -0.071024 -0.061044 0.080691 -0.196641 -0.088644 -0.129866 -0.068031 0.204282 0.145022 0.072695 -0.046531 0.040841 0.018450 -0.044361 -0.046396 0.142114 0.081654 -0.129297 0.247844 -0.033833 0.151466 -0.010471 0.009520 -0.009842 0.107420 0.046047 -0.159149 -0.045542 -0.087776 -0.302487 0.043074 -0.075143 0.160365 -0.196733 0.011375 -0.113848 0.028693 -0.010943 0.218788 -0.105428 0.002698 0.046891 -0.037565 0.013246 -0.127845 0.123330 0.009614 -0.104358 0.159714 0.027363 -0.011621 -0.032794 0.122525 -0.120139 -0.187941 -0.036279 0.095664 -0.006178 -0.235863 -0.104926 0.067512 0.031286 -0.088760 -0.170467 -0.098537 0.151232 0.030804 -0.110386 0.289828 -0.123473 0.076451 0.112133 0.152660 -0.009487 0.059582 -0.005784 -0.028748 0.214121 0.190450 -0.003149 
it's 0.027967 -0.170743 0.278877 -0.070111 -0.047699 0.019973 0.029378 -0.151873 -0.030328 0.011238 0.012068 0.092577 -0.206554 -0.267745 0.132939 -0.054402 0.109030 -0.019314 0.034506 0.168189 -0.075581 -0.059223 0.084250 -0.209422 -0.103282 -0.141740 -0.069221 0.216717 0.151767 0.083668 -0.053111 0.042627 0.018645 -0.043529 -0.056291 0.149157 0.088668 -0.136220 0.257506 -0.038102 0.155351 -0.008080 0.014498 -0.016870 0.114994 0.048235 -0.174900 -0.051701 -0.098609 -0.316820 0.041434 -0.072395 0.166688 -0.208433 0.016662 -0.119505 0.030731 -0.011642 0.231576 -0.113197 0.000102 0.054654 -0.035292 0.018154 -0.134391 0.128831 0.002491 -0.111766 0.163523 0.031504 -0.007044 -0.039737 0.128373 -0.128346 -0.193215 -0.041044 0.098107 -0.004122 -0.243064 -0.106796 0.072823 0.027377 -0.092382 -0.178208 -0.100233 0.156237 0.032614 -0.124811 0.306705 -0.129231 0.076719 0.116513 0.170287 -0.006261 0.065351 -0.007869 -0.038157 0.229993 0.204167 -0.004395 
its 0.031927 -0.152507 0.249579 -0.070949 -0.050709 0.015008 0.025064 -0.138264 -0.026132 0.007085 0.010858 0.078215 -0.190218 -0.239614 0.126308 -0.051264 0.100837 -0.025077 0.036686 0.147335 -0.060863 -0.059662 0.079868 -0.186295 -0.086796 -0.126680 -0.062093 0.189581 0.141974 0.073139 -0.047351 0.038607 0.016643 -0.035579 -0.044437 0.134628 0.076464 -0.129981 0.233862 -0.031984 0.147862 -0.007903 0.006932 -0.012161 0.098070 0.047510 -0.158995 -0.043871 -0.090967 -0.289123 0.038750 -0.069812 0.158520 -0.192886 0.015463 -0.105813 0.026168 -0.011022 0.208907 -0.097125 0.005280 0.042574 -0.041298 0.016506 -0.120254 0.112451 0.009717 -0.096123 0.148284 0.030359 -0.014006 -0.030490 0.117842 -0.113482 -0.178444 -0.035759 0.089495 -0.000122 -0.226855 -0.097679 0.063397 0.029408 -0.086972 -0.164464 -0.085436 0.141184 0.036548 -0.113102 0.276774 -0.118338 0.067162 0.106496 0.151958 -0.008595 0.059993 -0.006544 -0.030508 0.205098 0.184661 -0.001849 
an 0.031125 -0.184945 0.306550 -0.076761 -0.053326 0.015045 0.030865 -0.165258 -0.035122 0.011678 0.012839 0.099842 -0.235007 -0.288800 0.154252 -0.062681 0.115433 -0.028554 0.037662 0.176751 -0.076301 -0.063920 0.101524 -0.229445 -0.106937 -0.151078 -0.075095 0.230221 0.167342 0.086251 -0.056995 0.044984 0.016957 -0.047819 -0.057800 0.163288 0.094932 -0.155579 0.285723 -0.048965 0.169625 -0.005830 0.012695 -0.015274 0.121352 0.053083 -0.193379 -0.051951 -0.105010 -0.345688 0.048371 -0.087605 0.188047 -0.226432 0.012022 -0.129409 0.030421 -0.005549 0.262558 -0.115698 0.005737 0.059866 -0.048859 0.015046 -0.143367 0.140083 0.009052 -0.122786 0.186795 0.029586 -0.009242 -0.037996 0.141596 -0.145259 -0.217135 -0.037545 0.107455 -0.008939 -0.268441 -0.125708 0.078721 0.030237 -0.106872 -0.193480 -0.105791 0.174316 0.045194 -0.132965 0.333937 -0.141674 0.080413 0.129350 0.184984 -0.011055 0.073030 -0.006615 -0.041494 0.248412 0.221912 -0.005624 
turtle 0.021400 -0.114096 0.198297 -0.049542 -0.038739 0.010943 0.021721 -0.106337 -0.016634 0.007083 0.006375 0.069049 -0.153554 -0.188820 0.096681 -0.039728 0.072016 -0.016719 0.024052 0.120562 -0.046867 -0.043721 0.065504 -0.148766 -0.073728 -0.096969 -0.047747 0.146699 0.108490 0.062282 -0.036371 0.029850 0.008550 -0.030696 -0.035100 0.104441 0.062565 -0.100257 0.183415 -0.027006 0.113598 0.000503 0.013048 -0.013877 0.078708 0.034368 -0.125202 -0.033929 -0.069991 -0.221937 0.029612 -0.056650 0.116452 -0.154674 0.014082 -0.080890 0.017891 -0.010878 0.164242 -0.079305 -0.002695 0.035309 -0.028952 0.011559 -0.100052 0.094670 0.003262 -0.073287 0.120306 0.020098 -0.003735 -0.022248 0.093551 -0.095617 -0.141048 -0.025181 0.067404 -0.004347 -0.174500 -0.075042 0.050338 0.019108 -0.063979 -0.129834 -0.073272 0.109702 0.028388 -0.082997 0.217894 -0.098766 0.053439 0.077311 0.118082 -0.005174 0.043342 -0.007104 -0.021035 0.158625 0.144556 0.002456 
mock 0.026053 -0.122327 0.194468 -0.052527 -0.038653 0.017276 0.018753 -0.107408 -0.019224 0.001984 0.012587 0.065300 -0.145146 -0.191007 0.101355 -0.039498 0.078222 -0.016515 0.020300 0.113612 -0.054289 -0.040428 0.058390 -0.150156 -0.073710 -0.097625 -0.049022 0.155331 0.110907 0.053760 -0.033933 0.025653 0.008960 -0.029366 -0.034808 0.106633 0.059774 -0.097496 0.185630 -0.026993 0.109599 -0.002153 0.005521 -0.010598 0.077344 0.031095 -0.121765 -0.029609 -0.072763 -0.227325 0.035564 -0.052920 0.121419 -0.150503 0.008465 -0.085874 0.021868 -0.004332 0.164115 -0.077809 0.004778 0.039696 -0.033024 0.015953 -0.092960 0.096132 0.007722 -0.075922 0.115190 0.018532 -0.005304 -0.030148 0.098209 -0.086592 -0.141677 -0.023655 0.075915 0.000593 -0.173250 -0.077241 0.048830 0.018411 -0.068256 -0.125865 -0.075630 0.115685 0.023075 -0.091499 0.216221 -0.094816 0.055105 0.081593 0.120748 -0.006694 0.042759 -0.003067 -0.027772 0.159855 0.143053 -0.004875 
way 0.030611 -0.180403 0.304724 -0.076767 -0.054406 0.015016 0.036063 -0.165542 -0.031776 0.007768 0.016583 0.101684 -0.224882 -0.287163 0.148662 -0.056131 0.119418 -0.029626 0.039535 0.185276 -0.079668 -0.062942 0.097222 -0.221450 -0.104095 -0.149265 -0.073162 0.229567 0.167640 0.085257 -0.048991 0.037925 0.015556 -0.045327 -0.054925 0.158693 0.096025 -0.156909 0.277794 -0.045139 0.169516 -0.002693 0.017944 -0.019368 0.120561 0.049158 -0.194016 -0.053594 -0.105879 -0.351396 0.048077 -0.087477 0.181329 -0.232743 0.018892 -0.130454 0.025286 -0.012978 0.259690 -0.116559 0.001207 0.060586 -0.040547 0.015747 -0.146046 0.141222 0.005401 -0.120191 0.180806 0.035515 -0.009492 -0.039447 0.147809 -0.144498 -0.209922 -0.037942 0.107606 -0.006610 -0.274097 -0.123970 0.071529 0.028530 -0.107481 -0.191291 -0.113934 0.170553 0.044862 -0.134982 0.329789 -0.146138 0.083102 0.126860 0.175128 -0.010478 0.069883 -0.008436 -0.035707 0.248850 0.221039 -0.007757 
gryphon 0.016154 -0.103684 0.168922 -0.047958 -0.030854 0.006395 0.016323 -0.088285 -0.013703 0.004020 0.013797 0.053637 -0.126429 -0.161262 0.080916 -0.031693 0.061738 -0.014898 0.022534 0.101848 -0.042540 -0.041174 0.056305 -0.122486 -0.057973 -0.081582 -0.044337 0.132064 0.088508 0.045098 -0.029094 0.019976 0.007128 -0.024226 -0.035810 0.088320 0.052893 -0.082281 0.156672 -0.027089 0.098864 -0.005630 0.004736 -0.006987 0.068520 0.026844 -0.102243 -0.025879 -0.063159 -0.198623 0.029273 -0.052204 0.108802 -0.125055 0.007719 -0.074277 0.016982 -0.008563 0.147579 -0.064866 0.000905 0.030024 -0.029000 0.010177 -0.084044 0.082691 0.003526 -0.069333 0.100172 0.017997 -0.003464 -0.018356 0.080777 -0.074365 -0.124577 -0.023210 0.061345 -0.003265 -0.156478 -0.069959 0.038957 0.020744 -0.058507 -0.105165 -0.062777 0.095742 0.025330 -0.078176 0.185611 -0.083032 0.051977 0.066937 0.104712 -0.004725 0.036579 -0.009525 -0.022272 0.144795 0.122774 0.001167 
quite 0.014088 -0.093308 0.157050 -0.039661 -0.030559 0.008462 0.015295 -0.087791 -0.016752 0.007106 0.010544 0.048928 -0.123814 -0.157105 0.082062 -0.037420 0.066108 -0.012718 0.022154 0.097671 -0.044586 -0.040658 0.054483 -0.116832 -0.060749 -0.081724 -0.038004 0.119718 0.089990 0.048130 -0.032940 0.024093 0.005947 -0.029990 -0.028211 0.084919 0.048620 -0.080731 0.149843 -0.018014 0.092099 -0.004111 0.005470 -0.012374 0.063752 0.026179 -0.100232 -0.027525 -0.056150 -0.183394 0.022678 -0.044380 0.097767 -0.120425 0.012320 -0.066390 0.019697 -0.006060 0.140887 -0.062984 0.005695 0.029763 -0.024311 0.012305 -0.078539 0.071833 -0.001840 -0.059882 0.096566 0.018349 -0.001901 -0.019857 0.076972 -0.077347 -0.115687 -0.020460 0.062502 -0.001698 -0.149167 -0.066938 0.046868 0.020883 -0.058418 -0.102582 -0.061523 0.089868 0.023709 -0.073138 0.176751 -0.079641 0.045472 0.062136 0.093062 -0.003001 0.042731 -0.010671 -0.020274 0.137701 0.121521 0.000455 
hatter 0.038495 -0.217015 0.363861 -0.095500 -0.064933 0.027919 0.040918 -0.200200 -0.041746 0.007870 0.015322 0.118744 -0.276120 -0.348918 0.183021 -0.069650 0.142642 -0.029345 0.042108 0.222554 -0.096406 -0.080226 0.119692 -0.265630 -0.129129 -0.190491 -0.091390 0.285499 0.200500 0.108606 -0.066146 0.045775 0.020104 -0.058001 -0.065764 0.192822 0.120822 -0.185358 0.341471 -0.053147 0.208368 -0.002440 0.017694 -0.015907 0.142773 0.059216 -0.232246 -0.056681 -0.123991 -0.416986 0.062406 -0.096700 0.227949 -0.273622 0.019108 -0.160356 0.040076 -0.015719 0.305817 -0.148255 0.007250 0.062524 -0.054771 0.022037 -0.174023 0.171685 0.011754 -0.142480 0.216156 0.039394 -0.017807 -0.045842 0.179265 -0.168246 -0.255091 -0.049759 0.128837 -0.007272 -0.323082 -0.143515 0.095068 0.040448 -0.124814 -0.236809 -0.129276 0.210394 0.052948 -0.158369 0.399318 -0.168730 0.101334 0.150294 0.213859 -0.014005 0.090224 -0.014327 -0.041138 0.297684 0.264719 -0.003216 
are 0.010258 -0.056537 0.093905 -0.025169 -0.017003 0.008734 0.007762 -0.050011 -0.004937 0.005689 0.001240 0.032789 -0.074714 -0.091477 0.046849 -0.014926 0.037923 -0.003809 0.015601 0.056602 -0.028908 -0.019258 0.030061 -0.073421 -0.033214 -0.047819 -0.019320 0.073277 0.049270 0.025285 -0.020974 0.017638 0.009255 -0.017220 -0.020644 0.051392 0.025564 -0.044170 0.088289 -0.009208 0.057577 0.000060 0.008952 -0.009929 0.037744 0.019932 -0.062311 -0.012905 -0.031873 -0.106930 0.013487 -0.025072 0.059089 -0.074776 0.009381 -0.044470 0.013781 -0.004205 0.080061 -0.041242 0.002540 0.014779 -0.008764 0.006157 -0.046785 0.047281 0.001801 -0.033293 0.059601 0.012673 -0.004355 -0.011360 0.048007 -0.043203 -0.066633 -0.011591 0.038867 -0.003770 -0.086156 -0.042072 0.023917 0.006417 -0.033157 -0.063838 -0.035307 0.053556 0.007156 -0.042052 0.103056 -0.048716 0.028285 0.042735 0.052141 -0.008170 0.022014 -0.004544 -0.007865 0.075907 0.065893 -0.001135 
think 0.046953 -0.265717 0.451237 -0.117622 -0.078957 0.026208 0.045699 -0.241568 -0.046583 0.009948 0.020671 0.145154 -0.336395 -0.425844 0.213611 -0.082908 0.169422 -0.035409 0.058130 0.260883 -0.118184 -0.097688 0.142666 -0.323441 -0.156350 -0.224900 -0.109332 0.343668 0.241573 0.131562 -0.075384 0.061420 0.023136 -0.063388 -0.080169 0.243853 0.145834 -0.221239 0.417581 -0.060423 0.259225 -0.011172 0.020925 -0.024294 0.178119 0.077061 -0.279262 -0.081047 -0.147790 -0.508271 0.074094 -0.129167 0.273079 -0.342483 0.025721 -0.192272 0.040428 -0.010523 0.372806 -0.176803 0.000439 0.081877 -0.060862 0.028482 -0.219041 0.202914 0.006408 -0.175937 0.263108 0.052462 -0.023518 -0.061140 0.212378 -0.206706 -0.313729 -0.060366 0.165677 -0.008172 -0.401804 -0.176852 0.114159 0.044981 -0.151484 -0.286933 -0.161384 0.247332 0.060642 -0.199131 0.489539 -0.214253 0.121132 0.187850 0.267147 -0.017127 0.104436 -0.019817 -0.051487 0.366248 0.317004 -0.005940 
their 0.020889 -0.120769 0.214073 -0.058395 -0.041894 0.016883 0.025058 -0.118407 -0.025936 0.003691 0.009318 0.064662 -0.156920 -0.197024 0.108010 -0.037137 0.077644 -0.020300 0.023703 0.122708 -0.052941 -0.049751 0.072164 -0.159549 -0.073225 -0.111044 -0.052816 0.157616 0.119541 0.061272 -0.033357 0.030803 0.012683 -0.028694 -0.034389 0.113996 0.072561 -0.108642 0.197815 -0.025523 0.119294 -0.000457 0.007252 -0.014211 0.085179 0.033352 -0.127742 -0.033486 -0.068195 -0.235522 0.029506 -0.058039 0.126705 -0.164674 0.007307 -0.089360 0.020173 -0.004848 0.173015 -0.085098 0.007026 0.036793 -0.025696 0.009465 -0.097032 0.097429 0.007613 -0.086981 0.129615 0.022648 -0.010914 -0.032558 0.102808 -0.098859 -0.145831 -0.029061 0.080404 -0.004339 -0.189669 -0.079395 0.056809 0.024357 -0.069465 -0.138102 -0.079025 0.120363 0.023371 -0.093316 0.228347 -0.095599 0.056317 0.090247 0.120365 -0.004120 0.053020 -0.012920 -0.027501 0.169185 0.147958 0.001703 
just 0.044665 -0.240862 0.407176 -0.108228 -0.078283 0.026300 0.045558 -0.224119 -0.037487 0.009109 0.020357 0.130822 -0.303966 -0.391738 0.202154 -0.081711 0.153776 -0.036538 0.051857 0.239035 -0.104831 -0.094144 0.125343 -0.297347 -0.145315 -0.207326 -0.102778 0.308069 0.223867 0.117726 -0.075065 0.051129 0.023129 -0.063367 -0.077898 0.215581 0.130318 -0.201689 0.373110 -0.062418 0.226871 -0.010863 0.022667 -0.024175 0.162968 0.066324 -0.251239 -0.069189 -0.143296 -0.464086 0.062908 -0.108209 0.244568 -0.311796 0.019031 -0.170209 0.038753 -0.013593 0.346713 -0.156998 0.003791 0.073638 -0.056871 0.023430 -0.195674 0.181762 0.007305 -0.161689 0.240109 0.043061 -0.019193 -0.055440 0.191227 -0.181696 -0.289272 -0.057278 0.149763 -0.010845 -0.357281 -0.164765 0.096330 0.042831 -0.134520 -0.257864 -0.146195 0.229746 0.051168 -0.180552 0.444098 -0.192228 0.111385 0.166379 0.235891 -0.015009 0.098536 -0.017581 -0.051233 0.334056 0.287650 -0.004255 
here 0.043801 -0.227329 0.371655 -0.095229 -0.067311 0.022231 0.042223 -0.200119 -0.034161 0.006246 0.022804 0.127386 -0.286534 -0.358433 0.178640 -0.071285 0.145915 -0.033021 0.050124 0.226687 -0.099808 -0.084520 0.118240 -0.275533 -0.131402 -0.192406 -0.093218 0.284797 0.204699 0.112929 -0.064429 0.049729 0.020285 -0.057058 -0.071055 0.205552 0.123885 -0.186323 0.351846 -0.053400 0.209601 -0.004526 0.013811 -0.022880 0.144640 0.059906 -0.230278 -0.058821 -0.125894 -0.426160 0.061876 -0.099147 0.228230 -0.288740 0.022201 -0.155148 0.034607 -0.009046 0.316174 -0.144151 0.007088 0.063113 -0.053343 0.020848 -0.183053 0.174795 0.004271 -0.150986 0.223718 0.042416 -0.012450 -0.048973 0.176884 -0.173650 -0.265973 -0.048724 0.135419 -0.006349 -0.329258 -0.147829 0.089234 0.043259 -0.128588 -0.240605 -0.129601 0.210946 0.053797 -0.162088 0.404720 -0.180900 0.100775 0.153085 0.217808 -0.009241 0.084179 -0.012499 -0.051502 0.310872 0.268598 -0.003013 
say 0.032529 -0.162921 0.272387 -0.077513 -0.048939 0.018686 0.030461 -0.147623 -0.026024 0.009806 0.017479 0.088419 -0.209332 -0.257448 0.134648 -0.058254 0.106489 -0.019523 0.036900 0.163717 -0.074452 -0.062681 0.088116 -0.201899 -0.097958 -0.136982 -0.071262 0.208078 0.152532 0.083405 -0.047785 0.037922 0.015476 -0.045207 -0.052996 0.149360 0.082536 -0.135068 0.256191 -0.036287 0.151802 -0.010510 0.008308 -0.011729 0.111318 0.048432 -0.172554 -0.051472 -0.098004 -0.308494 0.046154 -0.079798 0.169882 -0.207709 0.012231 -0.114688 0.028760 -0.012644 0.233119 -0.109942 0.005523 0.049210 -0.044481 0.017529 -0.136203 0.127352 0.007537 -0.105870 0.163969 0.030702 -0.012950 -0.039640 0.129286 -0.130070 -0.187114 -0.039269 0.096078 -0.008078 -0.242911 -0.109582 0.070214 0.032038 -0.092594 -0.172045 -0.093749 0.150576 0.039010 -0.120370 0.294701 -0.129399 0.079711 0.111726 0.165100 -0.015469 0.061700 -0.014482 -0.031679 0.220432 0.198488 -0.007723 
some 0.013269 -0.099354 0.164885 -0.048000 -0.026120 0.013457 0.016351 -0.091266 -0.014733 0.006526 0.008158 0.058134 -0.124102 -0.156026 0.074960 -0.029800 0.068144 -0.010008 0.023534 0.095808 -0.040689 -0.033889 0.054143 -0.115932 -0.054585 -0.084267 -0.037677 0.128778 0.088935 0.044281 -0.029589 0.024728 0.009716 -0.021283 -0.031711 0.084736 0.050257 -0.082949 0.150486 -0.024053 0.090999 0.001053 0.011054 -0.004842 0.061289 0.023512 -0.097642 -0.022698 -0.060341 -0.188707 0.024011 -0.044726 0.096111 -0.121495 0.012617 -0.066503 0.020294 -0.005311 0.142281 -0.058903 -0.000223 0.025468 -0.022134 0.010937 -0.081284 0.072489 0.004988 -0.062641 0.102719 0.020574 -0.011419 -0.027039 0.081862 -0.080029 -0.110802 -0.026408 0.054759 -0.004108 -0.146884 -0.064101 0.038124 0.018293 -0.056276 -0.107139 -0.055696 0.092723 0.024676 -0.076470 0.174786 -0.077889 0.046987 0.066288 0.093769 -0.002169 0.038267 -0.002423 -0.016130 0.132870 0.118415 -0.003336 
first 0.021588 -0.110662 0.191793 -0.048573 -0.033724 0.016275 0.018806 -0.103746 -0.015540 0.005789 0.010488 0.063286 -0.146740 -0.183242 0.091104 -0.042066 0.074615 -0.019503 0.022544 0.115444 -0.050538 -0.045710 0.067546 -0.146855 -0.072453 -0.099009 -0.044908 0.148286 0.107141 0.055010 -0.038350 0.026052 0.008410 -0.034822 -0.031374 0.108903 0.060288 -0.096242 0.179470 -0.027656 0.114486 -0.004353 0.005012 -0.008461 0.078815 0.033434 -0.122090 -0.035037 -0.069443 -0.221347 0.027842 -0.056115 0.120208 -0.143158 0.013179 -0.086640 0.015180 -0.003371 0.164901 -0.076877 0.001869 0.031781 -0.031811 0.014239 -0.097911 0.092499 0.001603 -0.076840 0.114247 0.016558 -0.011622 -0.023996 0.096180 -0.091316 -0.137890 -0.029174 0.066203 -0.006238 -0.176728 -0.074085 0.053459 0.024020 -0.062778 -0.124279 -0.073794 0.106922 0.023915 -0.085413 0.208314 -0.087016 0.049441 0.079934 0.113964 -0.004652 0.048357 -0.008444 -0.020558 0.159138 0.134829 -0.005103 
much 0.025498 -0.162387 0.270323 -0.074532 -0.054708 0.022090 0.033268 -0.151685 -0.028180 0.008122 0.015459 0.089127 -0.201542 -0.255145 0.137499 -0.049126 0.105083 -0.022797 0.032370 0.157289 -0.070713 -0.055178 0.081904 -0.204115 -0.097286 -0.140870 -0.062530 0.207463 0.149210 0.083481 -0.047511 0.035681 0.011233 -0.042336 -0.053360 0.141325 0.083007 -0.137025 0.248895 -0.041041 0.158849 -0.009879 0.012788 -0.011719 0.109276 0.047824 -0.167429 -0.045382 -0.087582 -0.309629 0.046851 -0.079907 0.164883 -0.202608 0.014530 -0.111597 0.024728 -0.010267 0.229725 -0.103552 0.004645 0.046001 -0.039052 0.017970 -0.134200 0.123536 0.005763 -0.109607 0.161242 0.029340 -0.015203 -0.034158 0.129370 -0.126989 -0.184978 -0.039560 0.100350 -0.006227 -0.237223 -0.105690 0.068096 0.026387 -0.097086 -0.173574 -0.094297 0.151419 0.039111 -0.113460 0.293971 -0.129253 0.078780 0.110445 0.162650 -0.011880 0.069690 -0.010370 -0.036823 0.220149 0.194345 -0.002285 
go 0.036794 -0.194589 0.330633 -0.087203 -0.064334 0.017552 0.029495 -0.174546 -0.031923 0.011739 0.019460 0.102560 -0.251096 -0.309410 0.163416 -0.059020 0.123406 -0.023737 0.040898 0.194941 -0.083543 -0.075089 0.107350 -0.244697 -0.114050 -0.170125 -0.083838 0.251317 0.177240 0.098279 -0.053160 0.044275 0.013279 -0.051607 -0.059980 0.178616 0.106182 -0.160747 0.305497 -0.052298 0.190703 -0.010103 0.011017 -0.016009 0.133008 0.055001 -0.199459 -0.051603 -0.112219 -0.379861 0.053965 -0.095120 0.202738 -0.244944 0.012081 -0.140533 0.035980 -0.007697 0.280839 -0.125277 0.003515 0.055480 -0.041595 0.019322 -0.159415 0.146706 0.002681 -0.133761 0.196881 0.035561 -0.010603 -0.044731 0.151566 -0.152812 -0.234989 -0.043165 0.120525 -0.003731 -0.290018 -0.134573 0.086668 0.031622 -0.111365 -0.211919 -0.112871 0.184680 0.038103 -0.148678 0.355124 -0.157010 0.095622 0.135106 0.197686 -0.014125 0.079516 -0.009301 -0.037608 0.270539 0.233040 -0.000865 
only 0.024341 -0.143975 0.249475 -0.069732 -0.047698 0.012684 0.026485 -0.130039 -0.026858 0.009666 0.010597 0.082131 -0.188065 -0.240672 0.125921 -0.046646 0.094371 -0.018202 0.032135 0.150395 -0.064129 -0.053001 0.081724 -0.183838 -0.091118 -0.128424 -0.058416 0.190166 0.133677 0.075568 -0.039692 0.037344 0.008983 -0.042226 -0.042163 0.130056 0.079323 -0.119395 0.230307 -0.034727 0.138510 -0.002972 0.007532 -0.013546 0.102098 0.044886 -0.149717 -0.043796 -0.082897 -0.280122 0.040191 -0.073352 0.153380 -0.184134 0.007755 -0.104407 0.024427 -0.011980 0.209122 -0.097080 0.007442 0.049763 -0.039392 0.011654 -0.124154 0.109367 0.007310 -0.097804 0.152859 0.026990 -0.013365 -0.033022 0.113952 -0.114680 -0.172379 -0.032815 0.090408 -0.007463 -0.221200 -0.100540 0.058399 0.028517 -0.087065 -0.157879 -0.092418 0.142610 0.037387 -0.111044 0.264972 -0.115592 0.071440 0.105182 0.148454 -0.005392 0.063355 -0.005537 -0.026134 0.207478 0.174542 -0.006988 
head 0.010328 -0.062257 0.108844 -0.026895 -0.023560 0.011918 0.013343 -0.064300 -0.014019 0.004278 0.005956 0.037089 -0.082108 -0.105075 0.053509 -0.023651 0.043393 -0.008338 0.013619 0.061661 -0.027531 -0.028795 0.036877 -0.081851 -0.040546 -0.055360 -0.029066 0.087257 0.054968 0.032244 -0.022595 0.010481 0.008837 -0.021593 -0.023640 0.057331 0.030898 -0.057568 0.100017 -0.012271 0.067318 -0.000511 0.001466 -0.008759 0.040858 0.013764 -0.071303 -0.019280 -0.041415 -0.129227 0.017318 -0.032347 0.063654 -0.084573 0.010699 -0.047920 0.007057 -0.008238 0.089766 -0.047096 -0.002698 0.024335 -0.012944 0.005113 -0.054724 0.045683 0.002058 -0.045819 0.064718 0.011538 -0.004130 -0.009946 0.055174 -0.048874 -0.078151 -0.017761 0.042670 -0.003092 -0.097823 -0.040930 0.028746 0.012568 -0.042143 -0.066450 -0.036653 0.061652 0.018661 -0.046966 0.124550 -0.052748 0.032568 0.047373 0.062863 -0.006713 0.030109 -0.000282 -0.009085 0.093467 0.076565 -0.002745 
thing 0.028093 -0.156186 0.259975 -0.070881 -0.045860 0.015949 0.024047 -0.141646 -0.027167 0.007228 0.014136 0.085467 -0.199055 -0.245903 0.124766 -0.048296 0.101311 -0.023693 0.033312 0.151812 -0.062316 -0.057414 0.086052 -0.191109 -0.092408 -0.133884 -0.063331 0.202978 0.142827 0.075550 -0.042939 0.039323 0.016296 -0.043275 -0.047355 0.136039 0.083914 -0.125699 0.241028 -0.042203 0.145752 -0.004845 0.016532 -0.013201 0.107349 0.047446 -0.157308 -0.040543 -0.091652 -0.293162 0.041905 -0.076631 0.162433 -0.197038 0.011324 -0.107857 0.027623 -0.011762 0.222788 -0.107171 0.001195 0.050859 -0.034598 0.017033 -0.130006 0.122217 0.005235 -0.106863 0.157226 0.026420 -0.012598 -0.030415 0.119813 -0.121312 -0.178146 -0.031068 0.096634 -0.004090 -0.235009 -0.105853 0.060933 0.027370 -0.090903 -0.168966 -0.089516 0.144924 0.034271 -0.115225 0.280587 -0.119438 0.072912 0.107753 0.150798 -0.013383 0.060498 -0.006989 -0.034047 0.210500 0.191305 -0.003961 
which 0.049279 -0.260564 0.442654 -0.121267 -0.075343 0.031028 0.047020 -0.236347 -0.044644 0.009700 0.018237 0.138115 -0.325420 -0.414784 0.214419 -0.082960 0.174489 -0.032599 0.053474 0.258911 -0.111304 -0.098662 0.145677 -0.324227 -0.150450 -0.225182 -0.106762 0.332264 0.241398 0.125727 -0.072435 0.056286 0.026911 -0.067469 -0.078184 0.237421 0.143458 -0.221612 0.408388 -0.061285 0.248607 -0.007286 0.020160 -0.026941 0.176766 0.078482 -0.274604 -0.074183 -0.153546 -0.502945 0.069554 -0.123108 0.263091 -0.329570 0.024942 -0.186989 0.046459 -0.019963 0.366946 -0.166483 0.002997 0.079546 -0.061906 0.021224 -0.204954 0.200050 0.007721 -0.172534 0.267671 0.047198 -0.020151 -0.054160 0.206854 -0.196886 -0.306909 -0.059906 0.163832 -0.003720 -0.389006 -0.172214 0.108282 0.047978 -0.150975 -0.275708 -0.157301 0.250314 0.056504 -0.187076 0.481234 -0.205761 0.121940 0.185644 0.263547 -0.018579 0.105244 -0.018569 -0.057887 0.363811 0.316279 -0.005119 
more 0.046905 -0.228976 0.390331 -0.102766 -0.071612 0.020207 0.046121 -0.212926 -0.044571 0.010936 0.022110 0.122221 -0.290913 -0.367786 0.192362 -0.073187 0.146970 -0.028711 0.048185 0.231734 -0.093687 -0.089387 0.121707 -0.286101 -0.138000 -0.191915 -0.095165 0.300583 0.210232 0.112128 -0.069967 0.048715 0.017272 -0.059553 -0.071759 0.207713 0.122695 -0.188869 0.353615 -0.058310 0.216538 -0.011194 0.013103 -0.017701 0.156978 0.065075 -0.236960 -0.062436 -0.129002 -0.441924 0.056157 -0.104485 0.231219 -0.293026 0.020334 -0.169370 0.033221 -0.014297 0.328143 -0.147816 0.007972 0.071580 -0.055062 0.025523 -0.188592 0.174478 0.011738 -0.150257 0.232749 0.043549 -0.014471 -0.050823 0.182550 -0.177529 -0.275436 -0.049227 0.138495 -0.011944 -0.346112 -0.156958 0.097289 0.037327 -0.134970 -0.250175 -0.141239 0.218520 0.051208 -0.173721 0.425437 -0.182522 0.106941 0.155297 0.227444 -0.011726 0.091049 -0.010778 -0.048083 0.318723 0.281246 -0.007851 
never 0.033190 -0.167108 0.281581 -0.075549 -0.049180 0.019653 0.031267 -0.151473 -0.025197 0.007944 0.015179 0.092954 -0.209909 -0.261850 0.138357 -0.049304 0.106108 -0.023276 0.030485 0.161459 -0.068617 -0.059086 0.092193 -0.201496 -0.094030 -0.137774 -0.064433 0.208326 0.152148 0.084586 -0.048968 0.033780 0.011063 -0.041774 -0.048393 0.144949 0.091956 -0.135493 0.258297 -0.035210 0.155016 -0.002628 0.009388 -0.010912 0.105064 0.049294 -0.173560 -0.042965 -0.091354 -0.316358 0.039240 -0.071707 0.167330 -0.207343 0.016634 -0.118318 0.024569 -0.011223 0.234224 -0.102437 -0.000004 0.054914 -0.038879 0.013581 -0.133387 0.128045 0.001316 -0.108275 0.163876 0.029933 -0.011107 -0.032223 0.134721 -0.121449 -0.193538 -0.040671 0.095344 -0.003545 -0.248219 -0.111767 0.064688 0.031642 -0.092399 -0.172281 -0.098463 0.153206 0.033667 -0.119481 0.294964 -0.127138 0.072738 0.117531 0.164567 -0.006034 0.062592 -0.008154 -0.031642 0.227198 0.201478 -0.007596 
voice 0.038008 -0.192557 0.321608 -0.086973 -0.056512 0.024153 0.030180 -0.167990 -0.037372 0.009725 0.017479 0.107059 -0.238675 -0.306288 0.159085 -0.065428 0.123065 -0.022845 0.038230 0.184656 -0.079124 -0.074352 0.100294 -0.235455 -0.116054 -0.158233 -0.078365 0.242860 0.169586 0.091139 -0.055902 0.048461 0.015942 -0.047999 -0.056194 0.175142 0.098098 -0.157764 0.293605 -0.041662 0.176480 -0.009519 0.014955 -0.014652 0.129568 0.052381 -0.196030 -0.051962 -0.107117 -0.366015 0.054876 -0.084995 0.192747 -0.242673 0.019998 -0.131202 0.032531 -0.014430 0.264028 -0.121599 0.005945 0.062135 -0.045067 0.015820 -0.147800 0.148474 0.002262 -0.121006 0.186468 0.030368 -0.013912 -0.045624 0.147355 -0.143977 -0.225927 -0.047976 0.114856 -0.007306 -0.278769 -0.125856 0.081119 0.032169 -0.111597 -0.197322 -0.115609 0.175476 0.037817 -0.135840 0.344008 -0.149806 0.087892 0.126390 0.185969 -0.012797 0.071358 -0.010133 -0.039208 0.263602 0.223303 -0.008190 
rabbit 0.032706 -0.157920 0.271149 -0.067569 -0.050775 0.022480 0.024940 -0.143552 -0.029692 0.001553 0.018041 0.088008 -0.196955 -0.254761 0.134066 -0.053511 0.100310 -0.016757 0.038500 0.152062 -0.071627 -0.056946 0.082563 -0.191779 -0.088786 -0.132972 -0.066590 0.204837 0.141613 0.080567 -0.045614 0.038312 0.018620 -0.040169 -0.043377 0.144970 0.084018 -0.127383 0.249431 -0.036744 0.154498 -0.003892 0.010911 -0.017812 0.100797 0.040438 -0.168626 -0.050552 -0.094345 -0.301712 0.039932 -0.072811 0.163549 -0.198561 0.016009 -0.109603 0.027844 -0.008197 0.228350 -0.100127 -0.000901 0.046044 -0.035247 0.016090 -0.124781 0.122224 0.006656 -0.100049 0.162863 0.030506 -0.015379 -0.034229 0.126768 -0.124686 -0.187437 -0.041753 0.093966 -0.004382 -0.240009 -0.108080 0.062572 0.030288 -0.094532 -0.167466 -0.092305 0.148428 0.038523 -0.118946 0.286876 -0.127772 0.071543 0.104780 0.162321 -0.004826 0.062332 -0.007879 -0.030796 0.217536 0.193475 -0.004039 
get 0.020042 -0.126955 0.219412 -0.059542 -0.041061 0.012923 0.025833 -0.120677 -0.019938 0.001004 0.011959 0.069060 -0.165399 -0.208811 0.105775 -0.039666 0.083630 -0.021844 0.026345 0.131404 -0.057386 -0.051919 0.064811 -0.153667 -0.072792 -0.111502 -0.050588 0.161590 0.120556 0.067183 -0.037388 0.028061 0.013086 -0.037406 -0.041213 0.111333 0.064655 -0.107849 0.202689 -0.030370 0.118366 -0.007038 0.010875 -0.015802 0.081660 0.031898 -0.133020 -0.038889 -0.072796 -0.245394 0.034509 -0.056286 0.127037 -0.162519 0.010601 -0.096313 0.023263 -0.009187 0.180922 -0.087883 -0.002458 0.037523 -0.027350 0.012441 -0.107463 0.097299 0.001669 -0.087316 0.124659 0.021046 -0.007804 -0.030924 0.103315 -0.100181 -0.153246 -0.033888 0.076869 -0.000221 -0.194474 -0.089275 0.053638 0.024909 -0.075343 -0.139886 -0.080944 0.123446 0.027579 -0.094590 0.236188 -0.104155 0.062634 0.084955 0.124332 -0.006711 0.053402 -0.003724 -0.025640 0.176642 0.156507 -0.001016 
